{"learner":{"attributes":{"best_iteration":"340","best_ntree_limit":"341","best_score":"2.640695"},"feature_names":[],"feature_types":[],"gradient_booster":{"model":{"gbtree_model_param":{"num_trees":"361","size_leaf_vector":"0"},"tree_info":[0,0,0,0,0,0,0,0,0,0,0,0,0,0,0,0,0,0,0,0,0,0,0,0,0,0,0,0,0,0,0,0,0,0,0,0,0,0,0,0,0,0,0,0,0,0,0,0,0,0,0,0,0,0,0,0,0,0,0,0,0,0,0,0,0,0,0,0,0,0,0,0,0,0,0,0,0,0,0,0,0,0,0,0,0,0,0,0,0,0,0,0,0,0,0,0,0,0,0,0,0,0,0,0,0,0,0,0,0,0,0,0,0,0,0,0,0,0,0,0,0,0,0,0,0,0,0,0,0,0,0,0,0,0,0,0,0,0,0,0,0,0,0,0,0,0,0,0,0,0,0,0,0,0,0,0,0,0,0,0,0,0,0,0,0,0,0,0,0,0,0,0,0,0,0,0,0,0,0,0,0,0,0,0,0,0,0,0,0,0,0,0,0,0,0,0,0,0,0,0,0,0,0,0,0,0,0,0,0,0,0,0,0,0,0,0,0,0,0,0,0,0,0,0,0,0,0,0,0,0,0,0,0,0,0,0,0,0,0,0,0,0,0,0,0,0,0,0,0,0,0,0,0,0,0,0,0,0,0,0,0,0,0,0,0,0,0,0,0,0,0,0,0,0,0,0,0,0,0,0,0,0,0,0,0,0,0,0,0,0,0,0,0,0,0,0,0,0,0,0,0,0,0,0,0,0,0,0,0,0,0,0,0,0,0,0,0,0,0,0,0,0,0,0,0,0,0,0,0,0,0,0,0,0,0,0,0,0,0,0,0,0,0,0,0,0,0,0,0,0,0,0,0,0,0,0,0,0,0,0,0],"trees":[{"base_weights":[4.214371E1,3.1908699E3,4.032893E1,-4.9285713E-1,3.3583257E3,9.002079E2,4.010505E1,3.926228E3,2.4157295E3,1.2410272E3,6.727166E2,3.6832527E1,6.679179E1,3.5768833E3,4.2190117E3,2.7992275E3,1.954696E3,1.3983225E3,1.0789142E3,8.0487476E2,5.6029266E2,6.912125E1,3.445354E1,2.1790482E2,6.59315E1,3.683542E3,3.2584082E3,4.388832E3,3.729584E3,2.993856E3,2.554579E3,2.1475537E3,1.7517247E3,8.751584E2,7.252321E2,6.067398E2,5.06531E2,9.9883934E1,5.3208015E1,3.050269E1,4.3742443E1,3.3714874E2,1.828449E2,7.220552E1,5.376773E1,1.12812904E2,8.758533E1,6.4967064E1,4.58338E1,1.44874E2,3.0194504E1,1.7674652E2,4.34807E1,3.9995148E2,2.9506528E2,2.1911009E2,1.6227449E2,8.430064E1,6.6782715E1,5.863759E1,4.8608566E1],"categories":[],"categories_nodes":[],"categories_segments":[],"categories_sizes":[],"default_left":[true,true,true,false,true,true,true,true,true,true,true,true,true,true,true,true,true,false,false,true,true,true,true,true,true,false,false,false,false,false,false,false,false,false,false,false,false,true,true,true,true,true,true,true,true,false,false,false,false,false,false,false,false,false,false,false,false,false,false,false,false],"id":0,"left_children":[1,3,5,-1,7,9,11,13,15,17,19,21,23,25,27,29,31,-1,-1,33,35,37,39,41,43,-1,-1,-1,-1,-1,-1,-1,-1,-1,-1,-1,-1,45,47,49,51,53,55,57,59,-1,-1,-1,-1,-1,-1,-1,-1,-1,-1,-1,-1,-1,-1,-1,-1],"loss_changes":[1.3729542E10,7.39628E8,4.6223872E8,0E0,6.944379E8,4.762352E7,2.096576E8,6.867866E7,8.240051E7,4.840736E6,5.1504E6,1.6426266E8,3.4075776E7,9.05216E5,2.0201984E7,5.160576E6,5.202176E6,0E0,0E0,3.22488E5,2.09564E5,7.183187E7,7.309286E7,6.142488E6,1.9895552E7,0E0,0E0,0E0,0E0,0E0,0E0,0E0,0E0,0E0,0E0,0E0,0E0,7.945184E6,8.383808E6,4.924979E7,2.0683008E7,7.7002E5,8.21584E5,1.1276992E7,2.226496E6,0E0,0E0,0E0,0E0,0E0,0E0,0E0,0E0,0E0,0E0,0E0,0E0,0E0,0E0,0E0,0E0],"parents":[2147483647,0,0,1,1,2,2,4,4,5,5,6,6,7,7,8,8,9,9,10,10,11,11,12,12,13,13,14,14,15,15,16,16,19,19,20,20,21,21,22,22,23,23,24,24,37,37,38,38,39,39,40,40,41,41,42,42,43,43,44,44],"right_children":[2,4,6,-1,8,10,12,14,16,18,20,22,24,26,28,30,32,-1,-1,34,36,38,40,42,44,-1,-1,-1,-1,-1,-1,-1,-1,-1,-1,-1,-1,46,48,50,52,54,56,58,60,-1,-1,-1,-1,-1,-1,-1,-1,-1,-1,-1,-1,-1,-1,-1,-1],"split_conditions":[5.748202E-2,2.5E-5,5.332171E-1,-1.4785714E-1,1.0695545E-2,1.3988787E-1,6.1E2,4.5E2,2.7107824E-2,8.898132E-2,2.6437086E-1,4.5E2,5.8200264E0,5.5493247E-3,3.0076464E-3,1.7907962E-2,3.982876E-2,4.1949677E2,3.2367426E2,1.9366728E-1,3.8620913E-1,2.3642886E3,5.7E2,1.720026E0,2.7635576E3,1.1050626E3,9.775225E2,1.3166497E3,1.1188752E3,8.981568E2,7.663738E2,6.442661E2,5.2551746E2,2.6254752E2,2.1756964E2,1.8202194E2,1.519593E2,1.0821887E3,4.227914E3,1.4943041E1,9.4833145E0,9.819795E-1,3.1819794E0,4.5E2,5.0455576E3,3.3843872E1,2.6275599E1,1.949012E1,1.3750141E1,4.34622E1,9.0583515E0,5.302396E1,1.3044211E1,1.1998545E2,8.8519585E1,6.573303E1,4.868235E1,2.5290192E1,2.0034815E1,1.7591278E1,1.458257E1],"split_indices":[0,0,0,0,0,0,1,2,0,0,0,1,0,0,0,0,0,0,0,0,0,0,1,0,0,0,0,0,0,0,0,0,0,0,0,0,0,0,0,0,0,0,0,2,0,0,0,0,0,0,0,0,0,0,0,0,0,0,0,0,0],"split_type":[0,0,0,0,0,0,0,0,0,0,0,0,0,0,0,0,0,0,0,0,0,0,0,0,0,0,0,0,0,0,0,0,0,0,0,0,0,0,0,0,0,0,0,0,0,0,0,0,0,0,0,0,0,0,0,0,0,0,0,0,0],"sum_hessian":[2.402705E6,1.383E3,2.401322E6,6.9E1,1.314E3,6.24E2,2.400698E6,8.18E2,4.96E2,2.48E2,3.76E2,2.138466E6,2.62232E5,3.79E2,4.39E2,2.68E2,2.28E2,1.22E2,1.26E2,1.7E2,2.06E2,1.46745E5,1.991721E6,1.483E3,2.60749E5,2.76E2,1.03E2,3.2E2,1.19E2,1.43E2,1.25E2,1.12E2,1.16E2,8.5E1,8.5E1,1.05E2,1.01E2,5.0028E4,9.6717E4,1.397378E6,5.94343E5,3.35E2,1.148E3,1.72018E5,8.8731E4,2.4385E4,2.5643E4,3.7273E4,5.9444E4,3.754E3,1.393624E6,1.166E3,5.93177E5,1.31E2,2.04E2,4.12E2,7.36E2,5.3245E4,1.18773E5,4.564E4,4.3091E4],"tree_param":{"num_deleted":"0","num_feature":"3","num_nodes":"61","size_leaf_vector":"0"}},{"base_weights":[2.950456E1,2.2627974E3,2.8244377E1,-3.4711227E-1,2.384226E3,5.9133673E2,2.8050611E1,2.7594644E3,1.7398931E3,9.3800995E2,4.5107764E2,2.5765722E1,4.6687244E1,2.5383079E3,3.0073254E3,2.0153279E3,1.4512504E3,1.0562595E3,8.2727203E2,5.750099E2,3.674182E2,4.8377346E1,2.4099691E1,1.2172397E2,4.585565E1,2.6457507E3,2.369866E3,3.1038958E3,2.4960364E3,2.1352273E3,1.860617E3,1.6108909E3,1.301552E3,6.473764E2,5.140992E2,4.036821E2,3.492667E2,6.79127E1,3.5835667E1,2.1985329E1,3.3446327E1,1.9796368E2,1.06957184E2,5.1578495E1,3.8665928E1,7.719659E1,5.7231747E1,4.1688034E1,2.9819817E1,7.2794365E1,2.1588297E1,4.1266335E1,2.9126328E1,2.3634026E2,1.7686182E2,1.3170055E2,1.00009056E2,6.489038E1,4.6523853E1,4.2185223E1,3.4654507E1],"categories":[],"categories_nodes":[],"categories_segments":[],"categories_sizes":[],"default_left":[true,true,true,false,true,true,true,true,true,true,true,true,true,true,true,true,true,false,false,true,true,true,true,true,true,false,false,false,false,false,false,false,false,false,false,false,false,true,true,true,true,true,true,true,true,false,false,false,false,false,false,false,false,false,false,false,false,false,false,false,false],"id":1,"left_children":[1,3,5,-1,7,9,11,13,15,17,19,21,23,25,27,29,31,-1,-1,33,35,37,39,41,43,-1,-1,-1,-1,-1,-1,-1,-1,-1,-1,-1,-1,45,47,49,51,53,55,57,59,-1,-1,-1,-1,-1,-1,-1,-1,-1,-1,-1,-1,-1,-1,-1,-1],"loss_changes":[6.762006E9,3.723694E8,2.6199155E8,0E0,3.0612582E8,3.9740384E7,1.0221965E8,3.682253E7,3.49184E7,2.229648E6,5.905912E6,8.05545E7,1.63536E7,1.602304E6,1.0866944E7,4.97728E5,3.543264E6,0E0,0E0,7.0744E5,9.2684E4,3.595027E7,3.935808E7,3.213292E6,1.066688E7,0E0,0E0,0E0,0E0,0E0,0E0,0E0,0E0,0E0,0E0,0E0,0E0,5.684736E6,3.145208E6,3.2763136E7,1.2411104E7,3.34766E5,4.00984E5,9.711296E6,1.62096E6,0E0,0E0,0E0,0E0,0E0,0E0,0E0,0E0,0E0,0E0,0E0,0E0,0E0,0E0,0E0,0E0],"parents":[2147483647,0,0,1,1,2,2,4,4,5,5,6,6,7,7,8,8,9,9,10,10,11,11,12,12,13,13,14,14,15,15,16,16,19,19,20,20,21,21,22,22,23,23,24,24,37,37,38,38,39,39,40,40,41,41,42,42,43,43,44,44],"right_children":[2,4,6,-1,8,10,12,14,16,18,20,22,24,26,28,30,32,-1,-1,34,36,38,40,42,44,-1,-1,-1,-1,-1,-1,-1,-1,-1,-1,-1,-1,46,48,50,52,54,56,58,60,-1,-1,-1,-1,-1,-1,-1,-1,-1,-1,-1,-1,-1,-1,-1,-1],"split_conditions":[5.2638777E-2,2.5E-5,7.615825E-1,-1.0413369E-1,1.0483656E-2,1.2205747E-1,6.1E2,4.7E2,2.4232853E-2,7.460326E-2,2.9519308E-1,4.5E2,1.1020026E1,2.7957754E-3,5.383266E-3,1.6267601E-2,3.5397846E-2,3.1687787E2,2.4818163E2,1.7479235E-1,4.3321708E-1,2.7316885E3,5.9E2,2.420026E0,1.4543826E3,7.937253E2,7.1095984E2,9.3116876E2,7.488109E2,6.4056824E2,5.581851E2,4.8326727E2,3.904656E2,1.9421294E2,1.5422977E2,1.2110464E2,1.04780014E2,1.3975886E3,4.9965137E3,4.000893E1,2.4666655E3,1.3394626E0,4.2819796E0,4.5E2,4.5145576E3,2.3158978E1,1.7169525E1,1.2506411E1,8.945946E0,2.183831E1,6.4764895E0,1.2379901E1,8.737899E0,7.090208E1,5.3058548E1,3.9510166E1,3.0002718E1,1.9467115E1,1.3957156E1,1.2655567E1,1.0396353E1],"split_indices":[0,0,0,0,0,0,1,2,0,0,0,1,0,0,0,0,0,0,0,0,0,0,1,0,0,0,0,0,0,0,0,0,0,0,0,0,0,0,0,0,0,0,0,2,0,0,0,0,0,0,0,0,0,0,0,0,0,0,0,0,0],"split_type":[0,0,0,0,0,0,0,0,0,0,0,0,0,0,0,0,0,0,0,0,0,0,0,0,0,0,0,0,0,0,0,0,0,0,0,0,0,0,0,0,0,0,0,0,0,0,0,0,0,0,0,0,0,0,0,0,0,0,0,0,0],"sum_hessian":[2.402705E6,1.354E3,2.401351E6,6.9E1,1.285E3,8.25E2,2.400526E6,8.1E2,4.75E2,2.36E2,5.89E2,2.138361E6,2.62165E5,4.34E2,3.76E2,2.4E2,2.35E2,1.1E2,1.26E2,2.35E2,3.54E2,1.46741E5,1.99162E6,2.872E3,2.59293E5,2.56E2,1.78E2,3.12E2,6.4E1,1.28E2,1.12E2,1.09E2,1.26E2,1.03E2,1.32E2,1.11E2,2.43E2,5.7372E4,8.9369E4,1.624202E6,3.67418E5,4.64E2,2.408E3,1.44371E5,1.14922E5,3.069E4,2.6682E4,4.5297E4,4.4072E4,1.2592E4,1.61161E6,1.30742E5,2.36676E5,1.61E2,3.03E2,5.24E2,1.884E3,3.9729E4,1.04642E5,6.1211E4,5.3711E4],"tree_param":{"num_deleted":"0","num_feature":"3","num_nodes":"61","size_leaf_vector":"0"}},{"base_weights":[2.0656004E1,1.5634711E3,1.9757153E1,-2.4446619E-1,1.6445963E3,3.1739218E2,1.9591707E1,1.9003915E3,1.1211023E3,5.509827E2,2.4068373E2,2.8589357E1,1.6896154E1,1.661423E3,2.0324729E3,1.2926387E3,9.057846E2,6.5121985E2,4.5340088E2,3.2607117E2,2.2305344E2,3.9534737E1,2.5209774E1,1.5077046E1,2.313289E1,1.7222802E3,1.4820652E3,2.1632703E3,1.8449391E3,1.3869038E3,1.1885509E3,9.815443E2,8.0969525E2,3.6284802E2,3.0817932E2,2.4973325E2,1.8232808E2,5.428266E1,3.2518654E1,1.7940409E1,3.4264038E1,2.897315E1,1.3813743E1,2.6128866E1,2.0236156E1,2.0271381E3,2.4206838E3,1.9249359E3,1.6495569E3,2.654011E2,2.1448653E2,2.3996413E2,1.6177196E2,5.9360474E1,4.8186184E1,3.0848316E1,6.652638E1,1.0502555E2,1.7441673E1,2.996543E1,4.4102177E1,3.886015E1,2.3246336E1,9.921332E0,1.6037964E1,2.3368174E1,3.3030502E1,1.8958559E1,2.7901075E1],"categories":[],"categories_nodes":[],"categories_segments":[],"categories_sizes":[],"default_left":[true,true,true,false,true,true,true,true,true,true,true,true,true,true,true,true,true,false,false,true,true,true,true,true,true,false,false,true,true,false,false,false,false,false,false,true,true,true,true,true,true,true,true,true,true,false,false,false,false,false,false,false,false,false,false,false,false,false,false,false,false,false,false,false,false,false,false,false,false],"id":2,"left_children":[1,3,5,-1,7,9,11,13,15,17,19,21,23,25,27,29,31,-1,-1,33,35,37,39,41,43,-1,-1,45,47,-1,-1,-1,-1,-1,-1,49,51,53,55,57,59,61,63,65,67,-1,-1,-1,-1,-1,-1,-1,-1,-1,-1,-1,-1,-1,-1,-1,-1,-1,-1,-1,-1,-1,-1,-1,-1],"loss_changes":[3.331949E9,1.7747302E8,1.1823981E8,0E0,1.7596595E8,2.3770496E7,5.820768E7,2.4777472E7,1.504352E7,2.922792E6,1.441704E6,2.0464096E7,2.0951328E7,9.7312E5,9.9904E6,7.26048E5,6.46624E5,0E0,0E0,4E1,8.63908E5,1.3503696E7,2.7822752E7,2.5098272E7,3.618544E6,0E0,0E0,6.656896E6,5.91552E5,0E0,0E0,0E0,0E0,0E0,0E0,2.20854E5,3.58079E5,1.299656E6,5.022176E6,1.0182072E7,7.959872E6,6.745152E6,1.1346224E7,3.904976E6,2.075728E6,0E0,0E0,0E0,0E0,0E0,0E0,0E0,0E0,0E0,0E0,0E0,0E0,0E0,0E0,0E0,0E0,0E0,0E0,0E0,0E0,0E0,0E0,0E0,0E0],"parents":[2147483647,0,0,1,1,2,2,4,4,5,5,6,6,7,7,8,8,9,9,10,10,11,11,12,12,13,13,14,14,15,15,16,16,19,19,20,20,21,21,22,22,23,23,24,24,27,27,28,28,35,35,36,36,37,37,38,38,39,39,40,40,41,41,42,42,43,43,44,44],"right_children":[2,4,6,-1,8,10,12,14,16,18,20,22,24,26,28,30,32,-1,-1,34,36,38,40,42,44,-1,-1,46,48,-1,-1,-1,-1,-1,-1,50,52,54,56,58,60,62,64,66,68,-1,-1,-1,-1,-1,-1,-1,-1,-1,-1,-1,-1,-1,-1,-1,-1,-1,-1,-1,-1,-1,-1,-1,-1],"split_conditions":[6.1279736E-2,2.5E-5,1.5615826E0,-7.333986E-2,1.3657273E-2,2.0318732E-1,1.2429636E3,4.3E2,3.1642295E-2,1.0785884E-1,3.723946E-1,4.1E2,5.9E2,7.5967526E-3,1.5691742E-3,2.1139234E-2,4.6138883E-2,1.9536597E2,1.3602026E2,2.4382946E-1,6.1E2,4.8E2,5.9E2,4.5E2,4.1712773E3,5.166841E2,4.4461957E2,5.3E2,7.258059E-3,4.1607117E2,3.5656528E2,2.9446332E2,2.4290858E2,1.0885441E2,9.24538E1,1.1784449E0,6.634259E-1,6.0585E2,6.5E2,6.7106495E0,6.5E2,3.4278137E3,5.3E2,5.6E2,6.5E2,6.081414E2,7.262052E2,5.774808E2,4.948671E2,7.962033E1,6.434596E1,7.198924E1,4.853159E1,1.7808144E1,1.4455855E1,9.254496E0,1.9957916E1,3.1507666E1,5.232502E0,8.989629E0,1.3230654E1,1.1658045E1,6.9739013E0,2.9764E0,4.8113894E0,7.0104523E0,9.909151E0,5.6875677E0,8.370323E0],"split_indices":[0,0,0,0,0,0,0,2,0,0,0,2,1,0,0,0,0,0,0,0,1,1,1,1,0,0,0,2,0,0,0,0,0,0,0,0,0,0,1,0,1,0,1,2,1,0,0,0,0,0,0,0,0,0,0,0,0,0,0,0,0,0,0,0,0,0,0,0,0],"split_type":[0,0,0,0,0,0,0,0,0,0,0,0,0,0,0,0,0,0,0,0,0,0,0,0,0,0,0,0,0,0,0,0,0,0,0,0,0,0,0,0,0,0,0,0,0,0,0,0,0,0,0,0,0,0,0,0,0,0,0,0,0,0,0,0,0,0,0,0,0],"sum_hessian":[2.402705E6,1.398E3,2.401307E6,6.9E1,1.329E3,1.333E3,2.399974E6,8.91E2,4.38E2,3.28E2,1.005E3,5.53247E5,1.846727E6,3.22E2,5.69E2,2.41E2,1.97E2,1.59E2,1.69E2,1.69E2,8.36E2,1.30521E5,4.22726E5,1.429716E6,4.17011E5,2.34E2,8.8E1,3.29E2,2.4E2,1.2E2,1.21E2,1.05E2,9.2E1,4.9E1,1.2E2,5.02E2,3.34E2,4.2074E4,8.8447E4,2.34476E5,1.8825E5,1.19143E5,1.310573E6,2.0499E5,2.12021E5,2.21E2,1.08E2,1.64E2,7.6E1,3.43E2,1.59E2,8.5E1,2.49E2,2.295E4,1.9124E4,8.4308E4,4.139E3,1.334E3,2.33142E5,1.31011E5,5.7239E4,4.3697E4,7.5446E4,4.76572E5,8.34001E5,1.46424E5,5.8566E4,1.81733E5,3.0288E4],"tree_param":{"num_deleted":"0","num_feature":"3","num_nodes":"69","size_leaf_vector":"0"}},{"base_weights":[1.4461555E1,1.0918198E3,1.3826698E1,-1.7217405E-1,1.1477987E3,1.791187E2,1.3674083E1,1.368644E3,8.372803E2,3.6864594E2,1.444349E2,1.8723272E1,1.1146207E1,1.2815375E3,1.5936171E3,9.683103E2,6.396443E2,4.522288E2,3.1525916E2,1.838761E2,1.24264946E2,2.3867441E1,1.4501945E1,9.853137E0,1.5579443E1,1.3556431E3,1.198557E3,1.7001279E3,1.4612933E3,1.0394755E3,8.50453E2,6.9387714E2,5.6117584E2,3.406533E2,2.740927E2,2.2520581E2,1.7384988E2,1.3884804E2,1.02678474E2,3.6349094E1,2.2153336E1,1.1741434E1,2.83757E1,1.3555966E1,8.001708E0,1.46068735E1,2.1413897E1,1.8891757E2,1.5047758E2,1.5371039E2,1.1846674E2,1.077057E2,9.347744E1,4.1730885E1,3.293848E1,2.0424452E1,3.4450943E1,4.303995E1,1.10703125E1,5.9716106E1,2.7664497E1,1.7783579E1,1.1195567E1,3.7198856E0,9.947976E0,1.2550025E1,1.872053E1,2.319935E1,1.6146938E1],"categories":[],"categories_nodes":[],"categories_segments":[],"categories_sizes":[],"default_left":[true,true,true,false,true,true,true,true,true,true,true,true,true,true,true,true,true,false,true,true,true,true,true,true,true,false,false,false,false,false,false,false,false,false,false,false,true,true,true,true,true,true,true,true,true,true,true,false,false,false,false,false,false,false,false,false,false,false,false,false,false,false,false,false,false,false,false,false,false],"id":3,"left_children":[1,3,5,-1,7,9,11,13,15,17,19,21,23,25,27,29,31,-1,33,35,37,39,41,43,45,-1,-1,-1,-1,-1,-1,-1,-1,-1,-1,-1,47,49,51,53,55,57,59,61,63,65,67,-1,-1,-1,-1,-1,-1,-1,-1,-1,-1,-1,-1,-1,-1,-1,-1,-1,-1,-1,-1,-1,-1],"loss_changes":[1.6433592E9,8.649702E7,6.057267E7,0E0,9.115814E7,1.4507112E7,3.0620992E7,1.3341056E7,1.3934304E7,1.383508E6,1.467968E6,1.738016E7,9.164336E6,1.8864E6,5.45728E5,1.934112E6,5.76624E5,0E0,1.28252E5,2.22736E5,3.77036E5,7.717536E6,1.6836824E7,8.484928E6,2.048168E6,0E0,0E0,0E0,0E0,0E0,0E0,0E0,0E0,0E0,0E0,0E0,1.52234E5,2.05644E5,1.3291E4,7.98164E5,6.743312E6,7.701508E6,1.624512E6,4.116728E6,6.876236E6,2.617876E6,4.84652E5,0E0,0E0,0E0,0E0,0E0,0E0,0E0,0E0,0E0,0E0,0E0,0E0,0E0,0E0,0E0,0E0,0E0,0E0,0E0,0E0,0E0,0E0],"parents":[2147483647,0,0,1,1,2,2,4,4,5,5,6,6,7,7,8,8,9,9,10,10,11,11,12,12,13,13,14,14,15,15,16,16,18,18,19,19,20,20,21,21,22,22,23,23,24,24,36,36,37,37,38,38,39,39,40,40,41,41,42,42,43,43,44,44,45,45,46,46],"right_children":[2,4,6,-1,8,10,12,14,16,18,20,22,24,26,28,30,32,-1,34,36,38,40,42,44,46,-1,-1,-1,-1,-1,-1,-1,-1,-1,-1,-1,48,50,52,54,56,58,60,62,64,66,68,-1,-1,-1,-1,-1,-1,-1,-1,-1,-1,-1,-1,-1,-1,-1,-1,-1,-1,-1,-1,-1,-1],"split_conditions":[6.620707E-2,2.5E-5,2.8615825E0,-5.165222E-2,9.383805E-3,2.282013E-1,2.0430636E3,5.1E2,3.027743E-2,1.0036518E-1,1.0615826E0,4.5E2,5.9E2,1.2921807E-3,8.8244316E-4,1.9886505E-2,4.7422945E-2,1.3566864E2,1.5937507E-1,3.4482926E-1,6.1E2,4.5E2,5.5E2,4.1E2,6.5E2,4.0669293E2,3.595671E2,5.100384E2,4.3838803E2,3.1184265E2,2.5513591E2,2.0816315E2,1.6835275E2,1.0219599E2,8.222781E1,6.7561745E1,6.1E2,2.1110775E0,2.1948023E0,7.099636E2,6.3E2,2.8530354E1,1.7561077E1,3.890734E3,5.3E2,5.6E2,5.8941035E3,5.6675274E1,4.5143276E1,4.6113117E1,3.5540024E1,3.2311714E1,2.8043234E1,1.2519266E1,9.881544E0,6.127336E0,1.0335283E1,1.2911986E1,3.3210938E0,1.7914833E1,8.29935E0,5.335074E0,3.3586702E0,1.1159657E0,2.984393E0,3.7650077E0,5.616159E0,6.9598055E0,4.844082E0],"split_indices":[0,0,0,0,0,0,0,2,0,0,0,2,1,0,0,0,0,0,0,0,1,1,2,2,1,0,0,0,0,0,0,0,0,0,0,0,1,0,0,0,1,0,0,0,1,2,0,0,0,0,0,0,0,0,0,0,0,0,0,0,0,0,0,0,0,0,0,0,0],"split_type":[0,0,0,0,0,0,0,0,0,0,0,0,0,0,0,0,0,0,0,0,0,0,0,0,0,0,0,0,0,0,0,0,0,0,0,0,0,0,0,0,0,0,0,0,0,0,0,0,0,0,0,0,0,0,0,0,0,0,0,0,0,0,0,0,0,0,0,0,0],"sum_hessian":[2.402705E6,1.414E3,2.401291E6,6.9E1,1.345E3,2.214E3,2.399077E6,7.84E2,5.61E2,3.41E2,1.873E3,8.00383E5,1.598694E6,5.7E2,2.14E2,3.35E2,2.26E2,1.3E2,2.11E2,6.31E2,1.242E3,3.60756E5,4.39627E5,1.237692E6,3.61002E5,2.93E2,2.77E2,1.12E2,1.02E2,2.04E2,1.31E2,1.29E2,9.7E1,1.26E2,8.5E1,1.19E2,5.12E2,7.38E2,5.04E2,4.3558E4,3.17198E5,3.66671E5,7.2956E4,4.12564E5,8.25128E5,3.09426E5,5.1576E4,3.07E2,2.05E2,4.23E2,3.15E2,3.19E2,1.85E2,1.6892E4,2.6666E4,2.78103E5,3.9095E4,7.696E3,3.58975E5,1.617E3,7.1339E4,1.47814E5,2.6475E5,2.57852E5,5.67276E5,2.06286E5,1.0314E5,3.8516E4,1.306E4],"tree_param":{"num_deleted":"0","num_feature":"3","num_nodes":"69","size_leaf_vector":"0"}},{"base_weights":[1.0124506E1,7.6258154E2,9.676714E0,-1.2125971E-1,8.012776E2,1.0938445E2,9.549364E0,9.3722455E2,5.4100903E2,2.5033392E2,9.175149E1,1.6074406E1,8.492074E0,8.965516E2,1.2042362E3,6.319483E2,4.3698227E2,3.0250992E2,2.1406703E2,1.2583018E2,8.01739E1,1.4152105E1,2.602935E1,1.6338495E1,7.9509287E0,9.512209E2,7.7797797E2,1.2536924E3,8.883684E2,6.699936E2,5.746612E2,4.8493243E2,4.0061526E2,2.3179803E2,1.8755756E2,1.5071898E2,1.1844453E2,9.2548E1,7.274673E1,2.206129E1,1.18553095E1,3.7114925E1,2.2442587E1,2.1747643E1,1.28850355E1,4.8823895E0,1.0116837E1,8.479028E2,1.0009058E3,7.03169E2,8.127077E2,6.0235266E2,7.216988E2,1.613372E2,1.3603377E2,1.3144896E2,9.8107056E1,1.0479434E2,7.433475E1,7.7353226E1,6.593589E1,3.150513E1,1.7351524E1,2.4196764E1,1.0035987E1,3.8200233E1,3.4158764E1,1.8825565E1,2.9199837E1,2.4362335E1,1.9504734E1,1.5184941E1,8.566915E0,6.71539E0,1.2163074E0,1.2161313E1,8.200114E0],"categories":[],"categories_nodes":[],"categories_segments":[],"categories_sizes":[],"default_left":[true,true,true,false,true,true,true,true,true,true,true,true,true,true,true,true,true,false,true,true,true,true,true,true,true,true,true,false,false,true,false,false,false,false,false,true,true,true,true,true,true,true,true,true,true,true,true,false,false,false,false,false,false,false,false,false,false,false,false,false,false,false,false,false,false,false,false,false,false,false,false,false,false,false,false,false,false],"id":4,"left_children":[1,3,5,-1,7,9,11,13,15,17,19,21,23,25,27,29,31,-1,33,35,37,39,41,43,45,47,49,-1,-1,51,-1,-1,-1,-1,-1,53,55,57,59,61,63,65,67,69,71,73,75,-1,-1,-1,-1,-1,-1,-1,-1,-1,-1,-1,-1,-1,-1,-1,-1,-1,-1,-1,-1,-1,-1,-1,-1,-1,-1,-1,-1,-1,-1],"loss_changes":[8.0956915E8,4.2174976E7,3.0490016E7,0E0,4.761344E7,7.589684E6,1.6544832E7,8.607616E6,4.16064E6,5.7861E5,1.064664E6,6.399016E6,8.762912E6,4.303232E6,6.82752E5,1.55496E5,1.92852E5,0E0,5.2412E4,1.08801E5,1.80385E5,5.091388E6,2.151128E6,2.48702E6,1.2831432E7,1.86176E6,8.0656E4,0E0,0E0,6.5408E4,0E0,0E0,0E0,0E0,0E0,2.066E3,1.288635E5,1.617245E5,3.49645E4,2.804962E6,4.87686E6,4.1138E4,9.98944E5,3.03794E5,8.06974E5,5.368338E6,4.435048E6,0E0,0E0,0E0,0E0,0E0,0E0,0E0,0E0,0E0,0E0,0E0,0E0,0E0,0E0,0E0,0E0,0E0,0E0,0E0,0E0,0E0,0E0,0E0,0E0,0E0,0E0,0E0,0E0,0E0,0E0],"parents":[2147483647,0,0,1,1,2,2,4,4,5,5,6,6,7,7,8,8,9,9,10,10,11,11,12,12,13,13,14,14,15,15,16,16,18,18,19,19,20,20,21,21,22,22,23,23,24,24,25,25,26,26,29,29,35,35,36,36,37,37,38,38,39,39,40,40,41,41,42,42,43,43,44,44,45,45,46,46],"right_children":[2,4,6,-1,8,10,12,14,16,18,20,22,24,26,28,30,32,-1,34,36,38,40,42,44,46,48,50,-1,-1,52,-1,-1,-1,-1,-1,54,56,58,60,62,64,66,68,70,72,74,76,-1,-1,-1,-1,-1,-1,-1,-1,-1,-1,-1,-1,-1,-1,-1,-1,-1,-1,-1,-1,-1,-1,-1,-1,-1,-1,-1,-1,-1,-1],"split_conditions":[6.674661E-2,2.5E-5,4.1210823E0,-3.6377914E-2,1.3657273E-2,2.401285E-1,5.429636E2,5.5E2,3.2743346E-2,1.11781225E-1,1.1615825E0,6.5E2,4.5E2,4.5931865E-3,6.3293786E-3,2.266784E-2,4.4062756E-2,9.0752975E1,1.635521E-1,4.125871E-1,2.2615824E0,4.1E2,4.7E2,3.1367136E3,5.5E2,4.3E2,4.1E2,3.7610773E2,2.6651053E2,4.3E2,1.7239836E2,1.4547974E2,1.20184586E2,6.953941E1,5.626727E1,3.25657E-1,6.1E2,6.1E2,6.1E2,4.8E2,5.9883926E1,4.3E2,5.2E2,1.7401887E3,5.787914E3,4.7E2,3.763961E3,2.5437083E2,3.0027176E2,2.1095071E2,2.4381232E2,1.8070581E2,2.1650964E2,4.8401165E1,4.081013E1,3.943469E1,2.9432117E1,3.1438303E1,2.2300425E1,2.3205969E1,1.9780767E1,9.45154E0,5.2054577E0,7.2590294E0,3.0107963E0,1.1460071E1,1.0247629E1,5.64767E0,8.759952E0,7.308701E0,5.8514204E0,4.5554824E0,2.5700746E0,2.0146172E0,3.6489224E-1,3.648394E0,2.4600344E0],"split_indices":[0,0,0,0,0,0,0,2,0,0,0,1,1,0,0,0,0,0,0,0,0,2,2,0,1,2,2,0,0,2,0,0,0,0,0,0,1,1,1,1,0,2,2,0,0,2,0,0,0,0,0,0,0,0,0,0,0,0,0,0,0,0,0,0,0,0,0,0,0,0,0,0,0,0,0,0,0],"split_type":[0,0,0,0,0,0,0,0,0,0,0,0,0,0,0,0,0,0,0,0,0,0,0,0,0,0,0,0,0,0,0,0,0,0,0,0,0,0,0,0,0,0,0,0,0,0,0,0,0,0,0,0,0,0,0,0,0,0,0,0,0,0,0,0,0,0,0,0,0,0,0,0,0,0,0,0,0],"sum_hessian":[2.402705E6,1.428E3,2.401277E6,6.9E1,1.359E3,3.062E3,2.398215E6,8.91E2,4.68E2,3.39E2,2.723E3,3.34408E5,2.063807E6,7.77E2,1.14E2,2.47E2,2.21E2,1.36E2,2.03E2,6.88E2,2.035E3,2.80287E5,5.4121E4,1.3315E5,1.930657E6,5.27E2,2.5E2,9.6E1,1.8E1,1.42E2,1.05E2,9E1,1.31E2,1.17E2,8.6E1,1.53E2,5.35E2,7.59E2,1.276E3,6.3075E4,2.17212E5,1.3228E4,4.0893E4,5.1882E4,8.1268E4,7.98868E5,1.131789E6,1.77E2,3.5E2,8.6E1,1.64E2,6.7E1,7.5E1,8.3E1,7E1,3.23E2,2.12E2,4.51E2,3.08E2,7.55E2,5.21E2,2.0987E4,4.2088E4,2.7905E4,1.89307E5,9.667E3,3.561E3,2.6638E4,1.4255E4,2.3951E4,2.7931E4,5.3024E4,2.8244E4,5.32582E5,2.66286E5,5.47641E5,5.84148E5],"tree_param":{"num_deleted":"0","num_feature":"3","num_nodes":"77","size_leaf_vector":"0"}},{"base_weights":[7.088423E0,5.3433374E2,6.773118E0,-8.540148E-2,5.613089E2,5.9143932E1,6.648987E0,6.5349384E2,3.675564E2,1.6340907E2,5.112601E1,6.00152E0,1.2791851E1,5.966772E2,7.6006934E2,4.2281906E2,2.9575693E2,1.9399223E2,1.2947855E2,7.6291016E1,4.3742847E1,8.78753E0,4.786103E0,1.62961E1,9.968673E0,6.3468756E2,5.199774E2,8.290852E2,6.6037317E2,4.4637454E2,3.8285803E2,3.201767E2,2.7538324E2,2.3224689E2,1.7901625E2,1.1215085E2,1.3960252E2,8.949635E1,6.8108376E1,5.1110355E1,3.7040005E1,1.3021824E1,5.7783313E0,4.265715E0,1.420925E1,2.238799E1,1.4090516E1,1.066152E1,6.274976E0,5.459594E2,6.578153E2,3.4449493E2,5.2530084E2,7.872937E2,1.00299176E3,3.9166983E2,4.8148636E2,1.2965051E2,3.2328043E2,9.432169E1,8.344061E1,7.8809006E1,5.2344734E1,5.499366E1,4.6538776E1,2.9452526E1,4.439055E1,1.8473053E1,1.0243095E1,9.20363E0,4.7996554E0,1.3066018E0,5.339532E0,1.6498905E1,8.293076E0,1.7854177E1,2.5311434E1,1.2192832E1,1.6041677E1,9.694618E0,1.162726E1,4.523945E0,8.025555E0],"categories":[],"categories_nodes":[],"categories_segments":[],"categories_sizes":[],"default_left":[true,true,true,false,true,true,true,true,true,true,true,true,true,true,true,true,true,true,true,true,true,true,true,true,true,true,true,true,false,true,false,true,false,false,false,false,false,true,true,true,true,true,true,true,true,true,true,true,true,false,false,false,false,false,false,false,false,false,false,false,false,false,false,false,false,false,false,false,false,false,false,false,false,false,false,false,false,false,false,false,false,false,false],"id":5,"left_children":[1,3,5,-1,7,9,11,13,15,17,19,21,23,25,27,29,31,33,35,37,39,41,43,45,47,49,51,53,-1,55,-1,57,-1,-1,-1,-1,-1,59,61,63,65,67,69,71,73,75,77,79,81,-1,-1,-1,-1,-1,-1,-1,-1,-1,-1,-1,-1,-1,-1,-1,-1,-1,-1,-1,-1,-1,-1,-1,-1,-1,-1,-1,-1,-1,-1,-1,-1,-1,-1],"loss_changes":[3.9942896E8,2.0701472E7,1.5609936E7,0E0,2.4175872E7,4.738396E6,9.52792E6,5.147616E6,1.632696E6,3.95152E5,9.76558E5,7.33836E6,2.259644E6,1.442528E6,1.640512E6,6.2548E4,9.342E3,7.93065E4,1.85515E4,1.2303E5,1.995905E5,8.38748E6,7.399144E6,1.369046E6,3.23686E5,4.65808E5,1.2412E4,5.47632E5,0E0,9.9534E4,0E0,7.168E3,0E0,0E0,0E0,0E0,0E0,5.39625E3,1.21036E5,3.1899E4,1.1804475E5,4.142144E6,1.289915E6,4.543688E6,1.069551E6,3.58595E5,2.76869E5,9.9357E4,6.1221E4,0E0,0E0,0E0,0E0,0E0,0E0,0E0,0E0,0E0,0E0,0E0,0E0,0E0,0E0,0E0,0E0,0E0,0E0,0E0,0E0,0E0,0E0,0E0,0E0,0E0,0E0,0E0,0E0,0E0,0E0,0E0,0E0,0E0,0E0],"parents":[2147483647,0,0,1,1,2,2,4,4,5,5,6,6,7,7,8,8,9,9,10,10,11,11,12,12,13,13,14,14,15,15,16,16,17,17,18,18,19,19,20,20,21,21,22,22,23,23,24,24,25,25,26,26,27,27,29,29,31,31,37,37,38,38,39,39,40,40,41,41,42,42,43,43,44,44,45,45,46,46,47,47,48,48],"right_children":[2,4,6,-1,8,10,12,14,16,18,20,22,24,26,28,30,32,34,36,38,40,42,44,46,48,50,52,54,-1,56,-1,58,-1,-1,-1,-1,-1,60,62,64,66,68,70,72,74,76,78,80,82,-1,-1,-1,-1,-1,-1,-1,-1,-1,-1,-1,-1,-1,-1,-1,-1,-1,-1,-1,-1,-1,-1,-1,-1,-1,-1,-1,-1,-1,-1,-1,-1,-1,-1],"split_conditions":[6.814714E-2,2.5E-5,7.920806E0,-2.5620446E-2,1.5380919E-2,3.1193507E-1,6.3E2,4.9E2,3.717463E-2,1.4501554E-1,2.0110128E0,4.1E2,8.774037E2,5.4907557E-3,1.8728088E-3,2.5689736E-2,4.8716243E-2,8.297703E-2,4.1E2,9.382015E-1,4.8210826E0,2.9245337E3,5.7E2,4.6E2,6.2009575E3,4.1E2,4.7E2,5.9E2,1.9811195E2,5.5E2,1.14857414E2,4.5E2,8.2614975E1,6.967407E1,5.3704876E1,3.3645256E1,4.188076E1,6.382015E-1,6.1E2,3.5210824E0,5.9E2,4.8E2,4.5E2,5.3E2,4.9966104E3,6.5E2,5.3E2,6.5E2,6.5E2,1.6378783E2,1.973446E2,1.0334849E2,1.5759026E2,2.3618813E2,3.0089755E2,1.1750095E2,1.444459E2,3.8895157E1,9.698413E1,2.8296509E1,2.5032185E1,2.3642702E1,1.5703421E1,1.6498098E1,1.3961634E1,8.835758E0,1.3317165E1,5.541916E0,3.0729287E0,2.7610893E0,1.4398967E0,3.9198056E-1,1.6018597E0,4.9496717E0,2.4879227E0,5.3562536E0,7.5934305E0,3.6578498E0,4.8125033E0,2.9083855E0,3.4881783E0,1.3571835E0,2.4076664E0],"split_indices":[0,0,0,0,0,0,1,2,0,0,0,2,0,0,0,0,0,0,2,0,0,0,2,2,0,2,1,2,0,1,0,1,0,0,0,0,0,0,1,0,1,1,1,1,0,1,2,1,1,0,0,0,0,0,0,0,0,0,0,0,0,0,0,0,0,0,0,0,0,0,0,0,0,0,0,0,0,0,0,0,0,0,0],"split_type":[0,0,0,0,0,0,0,0,0,0,0,0,0,0,0,0,0,0,0,0,0,0,0,0,0,0,0,0,0,0,0,0,0,0,0,0,0,0,0,0,0,0,0,0,0,0,0,0,0,0,0,0,0,0,0,0,0,0,0,0,0,0,0,0,0,0,0,0,0,0,0,0,0,0,0,0,0,0,0,0,0,0,0],"sum_hessian":[2.402705E6,1.435E3,2.40127E6,6.9E1,1.366E3,5.677E3,2.395593E6,9.24E2,4.42E2,4.04E2,5.273E3,2.167172E6,2.28421E5,6.07E2,3.17E2,2.47E2,1.95E2,2.1E2,1.94E2,1.194E3,4.079E3,6.58268E5,1.508904E6,1.01915E5,1.26506E5,4.01E2,2.06E2,1.83E2,1.34E2,1.49E2,9.8E1,8.2E1,1.13E2,5.5E1,1.55E2,7.6E1,1.18E2,4.53E2,7.41E2,1.94E3,2.139E3,2.73466E5,3.84802E5,1.429938E6,7.8966E4,2.7088E4,7.4827E4,1.06523E5,1.9983E4,8.8E1,3.13E2,8E0,1.98E2,1.52E2,3.1E1,6.3E1,8.6E1,2E0,8E1,2.44E2,2.09E2,4.39E2,3.02E2,1.043E3,8.97E2,1.055E3,1.084E3,9.233E4,1.81136E5,8.5511E4,2.99291E5,3.80739E5,1.049199E6,5.6931E4,2.2035E4,1.0622E4,1.6466E4,3.7937E4,3.689E4,5.3235E4,5.3288E4,9.992E3,9.991E3],"tree_param":{"num_deleted":"0","num_feature":"3","num_nodes":"83","size_leaf_vector":"0"}},{"base_weights":[4.962874E0,3.744107E2,4.740704E0,-6.0147047E-2,3.932024E2,2.7414843E1,4.580834E0,4.8137097E2,2.890911E2,8.557369E1,2.4220188E1,5.611852E0,2.466316E0,4.5874536E2,6.557584E2,3.3804846E2,2.2115271E2,1.2345436E2,6.529171E1,3.8555176E1,2.1170088E1,7.4997497E0,3.9520888E0,1.85422E0,4.5648875E0,4.0519885E2,4.8870493E2,2.9481754E2,3.6670505E2,2.5187753E2,1.9816785E2,1.4343962E2,1.0642201E2,7.8252304E1,6.210637E1,4.5988922E1,3.4603844E1,2.4806372E1,1.9002256E1,1.0418788E1,6.605982E0,1.7221411E0,6.7632723E0,4.7748675E0,1.5886979E0,4.0624685E0,7.5792193E0,4.3843704E2,3.8011295E2,5.2811633E2,4.5559933E2,2.418029E2,3.2352298E2,3.836198E2,2.9951123E2,1.3212476E2,2.5511946E2,1.5338966E2,1.2724232E2,9.542557E1,1.18477905E2,6.682304E1,8.82588E1,6.734672E1,5.3765915E1,5.2758083E1,3.5967915E1,3.9922695E1,3.0919836E1,1.9609926E1,2.9852848E1,2.0578712E1,1.6916267E1,9.696195E0,1.7978697E1,1.1667171E1,6.244466E0,1.3109672E1,1.4340705E0,5.296683E0,1.0038919E1,6.332595E0,2.1739218E0,-1.8153363E-1,2.1093466E0,5.24524E0,2.9107091E0,8.661662E0,4.9128013E0],"categories":[],"categories_nodes":[],"categories_segments":[],"categories_sizes":[],"default_left":[true,true,true,false,true,true,true,true,true,true,true,true,true,true,false,true,true,true,true,true,true,true,true,true,true,true,true,true,true,true,false,true,true,true,true,true,true,true,true,true,true,true,true,true,true,true,true,false,false,false,false,false,false,false,false,false,false,false,false,false,false,false,false,false,false,false,false,false,false,false,false,false,false,false,false,false,false,false,false,false,false,false,false,false,false,false,false,false,false],"id":6,"left_children":[1,3,5,-1,7,9,11,13,15,17,19,21,23,25,-1,27,29,31,33,35,37,39,41,43,45,47,49,51,53,55,-1,57,59,61,63,65,67,69,71,73,75,77,79,81,83,85,87,-1,-1,-1,-1,-1,-1,-1,-1,-1,-1,-1,-1,-1,-1,-1,-1,-1,-1,-1,-1,-1,-1,-1,-1,-1,-1,-1,-1,-1,-1,-1,-1,-1,-1,-1,-1,-1,-1,-1,-1,-1,-1],"loss_changes":[1.9721253E8,1.0161344E7,8.704248E6,0E0,1.2482448E7,3.121554E6,5.198348E6,2.630768E6,2.030652E6,6.641975E5,6.96044E5,5.02258E6,1.0039245E6,8.62368E5,0E0,3.45308E5,1.39349E5,8.82155E4,1.87545E4,8.05065E4,1.031405E5,1.956404E6,5.347185E6,4.692265E5,2.67245E5,3.596E4,3.0608E5,1.51565E5,1.306E5,9.3865E3,0E0,2.56175E3,1.096625E4,6.56825E3,1.6659125E4,6.3697625E4,3.460425E4,1.2806825E5,2.674575E4,9.601E5,1.0504E6,1.5603724E6,1.8126E6,2.0428238E5,5.1120675E5,2.06058E5,7.27255E4,0E0,0E0,0E0,0E0,0E0,0E0,0E0,0E0,0E0,0E0,0E0,0E0,0E0,0E0,0E0,0E0,0E0,0E0,0E0,0E0,0E0,0E0,0E0,0E0,0E0,0E0,0E0,0E0,0E0,0E0,0E0,0E0,0E0,0E0,0E0,0E0,0E0,0E0,0E0,0E0,0E0,0E0],"parents":[2147483647,0,0,1,1,2,2,4,4,5,5,6,6,7,7,8,8,9,9,10,10,11,11,12,12,13,13,15,15,16,16,17,17,18,18,19,19,20,20,21,21,22,22,23,23,24,24,25,25,26,26,27,27,28,28,29,29,31,31,32,32,33,33,34,34,35,35,36,36,37,37,38,38,39,39,40,40,41,41,42,42,43,43,44,44,45,45,46,46],"right_children":[2,4,6,-1,8,10,12,14,16,18,20,22,24,26,-1,28,30,32,34,36,38,40,42,44,46,48,50,52,54,56,-1,58,60,62,64,66,68,70,72,74,76,78,80,82,84,86,88,-1,-1,-1,-1,-1,-1,-1,-1,-1,-1,-1,-1,-1,-1,-1,-1,-1,-1,-1,-1,-1,-1,-1,-1,-1,-1,-1,-1,-1,-1,-1,-1,-1,-1,-1,-1,-1,-1,-1,-1,-1,-1],"split_conditions":[7.0278585E-2,2.5E-5,2.3338202E1,-1.8044114E-2,7.9783965E-3,9.615825E-1,4.6789634E3,5.7E2,2.9156744E-2,2.2166699E-1,5.0210824E0,4.5E2,5.9E2,4.3E2,1.9672754E2,5.7E2,4.2836454E-2,1.1602714E-1,3.2946107E-1,2.3615825E0,1.2121082E1,8.5185815E2,5.7E2,4.5E2,6.5E2,7.1965274E-4,5.4180634E-4,4.1E2,2.197521E-2,4.7E2,5.9450356E1,9.387243E-2,4.3E2,4.3E2,6.1E2,6.1E2,4.5E2,5.9E2,6.1E2,6.5E2,4.3E2,1.13578156E2,5.7E2,6.255714E3,5.1E2,5.9227773E3,6.472004E3,1.3153111E2,1.1403389E2,1.584349E2,1.3667981E2,7.254087E1,9.70569E1,1.15085945E2,8.985337E1,3.963743E1,7.653584E1,4.60169E1,3.8172695E1,2.8627672E1,3.5543373E1,2.0046911E1,2.647764E1,2.0204016E1,1.6129776E1,1.5827426E1,1.0790375E1,1.1976809E1,9.275951E0,5.882978E0,8.955854E0,6.173614E0,5.0748806E0,2.9088585E0,5.393609E0,3.5001514E0,1.8733398E0,3.9329016E0,4.3022117E-1,1.5890049E0,3.011676E0,1.8997785E0,6.5217656E-1,-5.4460093E-2,6.3280404E-1,1.5735722E0,8.7321275E-1,2.5984988E0,1.4738405E0],"split_indices":[0,0,0,0,0,0,0,2,0,0,0,2,1,2,0,1,0,0,0,0,0,0,1,1,1,0,0,2,0,1,0,0,2,2,1,1,2,1,1,1,1,0,2,0,1,0,0,0,0,0,0,0,0,0,0,0,0,0,0,0,0,0,0,0,0,0,0,0,0,0,0,0,0,0,0,0,0,0,0,0,0,0,0,0,0,0,0,0,0],"split_type":[0,0,0,0,0,0,0,0,0,0,0,0,0,0,0,0,0,0,0,0,0,0,0,0,0,0,0,0,0,0,0,0,0,0,0,0,0,0,0,0,0,0,0,0,0,0,0,0,0,0,0,0,0,0,0,0,0,0,0,0,0,0,0,0,0,0,0,0,0,0,0,0,0,0,0,0,0,0,0,0,0,0,0,0,0,0,0,0,0],"sum_hessian":[2.402705E6,1.443E3,2.401262E6,6.9E1,1.374E3,1.6811E4,2.384451E6,7.42E2,6.32E2,8.74E2,1.5937E4,1.602894E6,7.81557E5,6.6E2,8.2E1,3.65E2,2.67E2,3.03E2,5.71E2,2.794E3,1.3143E4,7.49908E5,8.52986E5,6.05075E5,1.76482E5,2.42E2,4.18E2,1.5E2,2.15E2,1.1E2,1.57E2,1.36E2,1.67E2,1.08E2,4.63E2,9.66E2,1.828E3,4.905E3,8.238E3,1.75785E5,5.74123E5,4.75668E5,3.77318E5,5.0423E4,5.54652E5,1.51271E5,2.5211E4,9.7E1,1.45E2,1.84E2,2.34E2,5.6E1,9.4E1,1.68E2,4.7E1,4E0,1.06E2,7.9E1,5.7E1,9.2E1,7.5E1,5.4E1,5.4E1,2.8E2,1.83E2,5.74E2,3.92E2,7.44E2,1.084E3,2.419E3,2.486E3,4.687E3,3.551E3,1.60451E5,1.5334E4,3.8273E4,5.3585E5,1.1735E4,4.63933E5,2.6063E5,1.16688E5,3.1535E4,1.8888E4,1.26056E5,4.28596E5,7.4629E4,7.6642E4,1.793E4,7.281E3],"tree_param":{"num_deleted":"0","num_feature":"3","num_nodes":"89","size_leaf_vector":"0"}},{"base_weights":[3.4746876E0,2.7401132E2,3.3249626E0,-4.2360704E-2,2.8901907E2,2.1782635E1,3.21589E0,3.4172046E2,2.2231886E2,9.9023926E1,1.9335302E1,2.3854797E0,4.7215724E0,3.0628152E2,4.0226535E2,2.529561E2,1.8172998E2,1.3046027E2,8.120437E1,3.344762E1,1.6363235E1,3.4705794E0,5.8106226E-1,5.974186E0,3.286026E0,2.5625418E2,3.2070306E2,3.797078E2,5.02322E2,2.2321194E2,2.7950607E2,1.9743979E1,1.8298712E2,2.3821472E1,1.3099805E2,8.907786E1,6.688581E1,4.3343056E1,2.873668E1,1.2718016E1,1.8853779E1,4.7352405E0,2.1699896E0,-1.7086911E0,1.3623917E0,8.44887E0,5.1324005E0,2.8977313E0,6.7805967E0,2.742743E2,2.2143562E2,3.4723306E2,3.038981E2,4.1320316E2,3.4757086E2,1.915827E2,2.3933087E2,2.6695175E2,3.381278E2,2.0084215E2,1.6252217E2,7.683117E1,9.5667496E1,5.900901E1,7.829879E1,4.9862083E1,3.9122387E1,3.233161E1,2.346451E1,9.703424E0,1.9521786E1,2.1131279E1,1.34911585E1,7.952148E0,3.3548505E0,2.9449205E0,1.1405886E0,8.164189E0,-1.9811411E0,1.0072977E1,1.2698649E0,1.0515429E1,7.341699E0,4.114376E0,8.011523E0,3.4832313E0,1.8921548E0,8.56359E0,4.4895515E0],"categories":[],"categories_nodes":[],"categories_segments":[],"categories_sizes":[],"default_left":[true,true,true,false,true,true,true,true,true,true,true,true,true,true,true,true,true,true,true,true,true,true,true,true,true,true,true,true,false,true,true,false,true,false,false,true,true,true,true,true,true,true,true,true,true,true,true,true,true,false,false,false,false,false,false,false,false,false,false,false,false,false,false,false,false,false,false,false,false,false,false,false,false,false,false,false,false,false,false,false,false,false,false,false,false,false,false,false,false],"id":7,"left_children":[1,3,5,-1,7,9,11,13,15,17,19,21,23,25,27,29,31,33,35,37,39,41,43,45,47,49,51,53,-1,55,57,-1,59,-1,-1,61,63,65,67,69,71,73,75,77,79,81,83,85,87,-1,-1,-1,-1,-1,-1,-1,-1,-1,-1,-1,-1,-1,-1,-1,-1,-1,-1,-1,-1,-1,-1,-1,-1,-1,-1,-1,-1,-1,-1,-1,-1,-1,-1,-1,-1,-1,-1,-1,-1],"loss_changes":[9.732342E7,5.466096E6,4.834442E6,0E0,4.353168E6,2.664803E6,2.984878E6,1.38304E6,6.49164E5,2.319645E5,5.730195E5,3.012674E6,1.525924E6,2.40316E5,3.87068E5,1.87158E5,4.6075E4,5.7685E3,2.54955E4,1.0960925E5,1.0233025E5,1.580408E6,1.0337486E6,9.43988E5,5.365475E5,5.1465E3,4.74E4,8.5662E4,0E0,3.26625E4,2.9698E4,0E0,5.57865E4,0E0,0E0,6.933875E3,4.6391562E3,1.9098E4,2.9831625E4,9.393356E4,8.16665E4,2.163228E6,3.7787425E5,3.954427E5,3.4720656E5,2.630995E5,9.91096E5,2.0952725E5,1.6149162E5,0E0,0E0,0E0,0E0,0E0,0E0,0E0,0E0,0E0,0E0,0E0,0E0,0E0,0E0,0E0,0E0,0E0,0E0,0E0,0E0,0E0,0E0,0E0,0E0,0E0,0E0,0E0,0E0,0E0,0E0,0E0,0E0,0E0,0E0,0E0,0E0,0E0,0E0,0E0,0E0],"parents":[2147483647,0,0,1,1,2,2,4,4,5,5,6,6,7,7,8,8,9,9,10,10,11,11,12,12,13,13,14,14,15,15,16,16,17,17,18,18,19,19,20,20,21,21,22,22,23,23,24,24,25,25,26,26,27,27,29,29,30,30,32,32,35,35,36,36,37,37,38,38,39,39,40,40,41,41,42,42,43,43,44,44,45,45,46,46,47,47,48,48],"right_children":[2,4,6,-1,8,10,12,14,16,18,20,22,24,26,28,30,32,34,36,38,40,42,44,46,48,50,52,54,-1,56,58,-1,60,-1,-1,62,64,66,68,70,72,74,76,78,80,82,84,86,88,-1,-1,-1,-1,-1,-1,-1,-1,-1,-1,-1,-1,-1,-1,-1,-1,-1,-1,-1,-1,-1,-1,-1,-1,-1,-1,-1,-1,-1,-1,-1,-1,-1,-1,-1,-1,-1,-1,-1,-1],"split_conditions":[4.9698405E-2,2.5E-5,1.9938202E1,-1.2708212E-2,6.6972496E-3,2.3329826E-1,5.7E2,4.9E2,2.1485562E-2,8.067948E-2,3.611013E0,4.7E2,3.245861E3,4.1E2,5.9E2,5.9E2,2.1799583E-2,4.3E2,1.5217958E-1,1.2615826E0,5.7E2,3.5562637E3,5.3E2,4.3E2,6.5E2,1.1429936E-3,4.3398992E-4,5.1555946E-4,1.5069661E2,4.1E2,5.7E2,5.923194E0,3.3209156E-2,7.146442E0,3.9299416E1,4.1E2,4.5E2,5.951692E-1,6.1E2,1.4943041E1,1.5075956E1,4.7E2,5.635112E3,1.5149994E2,9.537074E1,7.511897E2,5.7E2,5.744982E3,5.4694033E3,8.228229E1,6.643069E1,1.0416992E2,9.116943E1,1.2396095E2,1.0427126E2,5.747481E1,7.179926E1,8.0085526E1,1.0143835E2,6.0252647E1,4.8756653E1,2.304935E1,2.870025E1,1.7702703E1,2.3489637E1,1.4958626E1,1.1736716E1,9.699484E0,7.0393534E0,2.9110274E0,5.856536E0,6.339384E0,4.0473475E0,2.3856444E0,1.0064552E0,8.834762E-1,3.4217662E-1,2.449257E0,-5.9434235E-1,3.0218933E0,3.8095948E-1,3.1546288E0,2.2025099E0,1.2343129E0,2.4034572E0,1.0449694E0,5.6764644E-1,2.569077E0,1.3468655E0],"split_indices":[0,0,0,0,0,0,1,2,0,0,0,2,0,2,2,1,0,1,0,0,1,0,1,2,1,0,0,0,0,2,2,0,0,0,0,2,2,0,1,0,0,1,0,0,0,0,2,0,0,0,0,0,0,0,0,0,0,0,0,0,0,0,0,0,0,0,0,0,0,0,0,0,0,0,0,0,0,0,0,0,0,0,0,0,0,0,0,0,0],"split_type":[0,0,0,0,0,0,0,0,0,0,0,0,0,0,0,0,0,0,0,0,0,0,0,0,0,0,0,0,0,0,0,0,0,0,0,0,0,0,0,0,0,0,0,0,0,0,0,0,0,0,0,0,0,0,0,0,0,0,0,0,0,0,0,0,0,0,0,0,0,0,0,0,0,0,0,0,0,0,0,0,0,0,0,0,0,0,0,0,0],"sum_hessian":[2.402705E6,1.328E3,2.401377E6,6.9E1,1.259E3,1.4106E4,2.387271E6,7.01E2,5.58E2,4.32E2,1.3674E4,1.53867E6,8.48601E5,4.46E2,2.55E2,3.15E2,2.43E2,1.54E2,2.78E2,2.377E3,1.1297E4,9.60853E5,5.77817E5,4.53173E5,3.95428E5,1.04E2,3.42E2,2.12E2,4.3E1,1.53E2,1.62E2,2E0,2.41E2,1E0,1.53E2,1.76E2,1.02E2,7.64E2,1.613E3,4.588E3,6.709E3,4.87154E5,4.73699E5,1.47005E5,4.30812E5,1.15022E5,3.38151E5,3.55886E5,3.9542E4,6.4E1,4E1,1.25E2,2.17E2,9.8E1,1.14E2,5.6E1,9.7E1,1.38E2,2.4E1,1.24E2,1.17E2,6.6E1,1.1E2,6.4E1,3.8E1,2.96E2,4.68E2,9.56E2,6.57E2,3.181E3,1.407E3,4.707E3,2.002E3,1.46272E5,3.40882E5,2.70252E5,2.03447E5,3.947E3,1.43058E5,4.527E3,4.26285E5,4.0123E4,7.4899E4,2.4982E5,8.8331E4,2.24922E5,1.30964E5,2.2235E4,1.7307E4],"tree_param":{"num_deleted":"0","num_feature":"3","num_nodes":"89","size_leaf_vector":"0"}},{"base_weights":[2.432854E0,1.8498814E2,2.3230734E0,-2.9834038E-2,1.942727E2,8.122167E0,2.1517444E0,2.273259E2,1.2604992E2,3.4169037E1,7.5088186E0,1.0754721E0,2.9863691E0,2.1592789E2,3.2130792E2,1.4524826E2,1.02092865E2,6.0828407E1,2.7820663E1,1.3936589E1,6.739311E0,3.5446448E0,1.0174405E-1,4.4710402E0,2.406373E0,1.7233646E2,2.2820172E2,3.8552124E2,2.778047E2,1.3560771E2,1.7661223E2,9.885613E1,1.4204356E2,7.1110115E1,5.208184E1,3.497532E1,2.5232204E1,1.7735775E1,1.2273512E1,8.608297E0,3.99857E0,4.9617534E0,-7.864142E-1,-1.175594E0,6.6896796E-1,6.164679E0,2.7937644E0,2.1727123E0,7.850845E0,1.9853273E2,1.6068915E2,2.4772949E2,2.0417816E2,1.5795247E1,1.367735E2,1.8232178E1,9.918279E1,5.6594345E1,7.8549644E1,4.692058E1,6.05901E1,2.355343E1,3.9474777E1,3.1934332E1,1.5443542E1,2.5731176E1,1.6036673E1,9.12421E0,1.4420054E1,9.378084E0,6.7124777E0,1.6605105E0,9.390403E0,9.770634E0,3.2834675E0,-4.4600587E-2,-1.3245019E0,-4.8583427E-1,-2.4494145E0,-9.684831E-1,1.0181563E0,6.583593E0,4.491182E0,3.691552E0,1.9306871E0,1.7547573E0,4.2358255E0,6.8810983E0,1.04586115E1],"categories":[],"categories_nodes":[],"categories_segments":[],"categories_sizes":[],"default_left":[true,true,true,false,true,true,true,true,true,true,true,true,true,true,true,true,true,true,true,true,true,true,true,true,true,true,true,false,false,true,false,true,false,true,true,true,true,true,true,true,true,true,true,true,true,true,true,true,true,false,false,false,false,false,false,false,false,false,false,false,false,false,false,false,false,false,false,false,false,false,false,false,false,false,false,false,false,false,false,false,false,false,false,false,false,false,false,false,false],"id":8,"left_children":[1,3,5,-1,7,9,11,13,15,17,19,21,23,25,27,29,31,33,35,37,39,41,43,45,47,49,51,-1,-1,53,-1,55,-1,57,59,61,63,65,67,69,71,73,75,77,79,81,83,85,87,-1,-1,-1,-1,-1,-1,-1,-1,-1,-1,-1,-1,-1,-1,-1,-1,-1,-1,-1,-1,-1,-1,-1,-1,-1,-1,-1,-1,-1,-1,-1,-1,-1,-1,-1,-1,-1,-1,-1,-1],"loss_changes":[4.8152308E7,2.480524E6,2.385764E6,0E0,3.071948E6,1.1005875E6,2.095115E6,9.21488E5,1.92602E5,2.6655875E5,3.3290025E5,2.4492822E6,1.131178E6,4.0368E5,1.66661E5,5.1037E4,1.233725E4,2.3635125E4,2.28595E4,4.5255375E4,3.0796075E5,1.768321E6,5.293444E5,1.048267E6,1.2017005E6,2.48495E4,2.51068E5,0E0,0E0,2.49365E4,0E0,3.24825E3,0E0,1.034925E4,4.5345E3,1.6440812E4,6.1503438E4,2.9324938E4,3.372975E4,5.210675E4,3.073291E5,1.7519825E6,2.8352336E4,1.97398E5,2.8928103E5,1.286935E5,1.43659E5,7.810165E5,9.823025E4,0E0,0E0,0E0,0E0,0E0,0E0,0E0,0E0,0E0,0E0,0E0,0E0,0E0,0E0,0E0,0E0,0E0,0E0,0E0,0E0,0E0,0E0,0E0,0E0,0E0,0E0,0E0,0E0,0E0,0E0,0E0,0E0,0E0,0E0,0E0,0E0,0E0,0E0,0E0,0E0],"parents":[2147483647,0,0,1,1,2,2,4,4,5,5,6,6,7,7,8,8,9,9,10,10,11,11,12,12,13,13,14,14,15,15,16,16,17,17,18,18,19,19,20,20,21,21,22,22,23,23,24,24,25,25,26,26,29,29,31,31,33,33,34,34,35,35,36,36,37,37,38,38,39,39,40,40,41,41,42,42,43,43,44,44,45,45,46,46,47,47,48,48],"right_children":[2,4,6,-1,8,10,12,14,16,18,20,22,24,26,28,30,32,34,36,38,40,42,44,46,48,50,52,-1,-1,54,-1,56,-1,58,60,62,64,66,68,70,72,74,76,78,80,82,84,86,88,-1,-1,-1,-1,-1,-1,-1,-1,-1,-1,-1,-1,-1,-1,-1,-1,-1,-1,-1,-1,-1,-1,-1,-1,-1,-1,-1,-1,-1,-1,-1,-1,-1,-1,-1,-1,-1,-1,-1,-1],"split_conditions":[7.0278585E-2,2.5E-5,9.711655E1,-8.950212E-3,1.5380919E-2,1.9994777E0,5.5E2,5.7E2,3.717463E-2,2.2166699E-1,1.24210825E1,4.7E2,4.3E2,4.1E2,4.2499998E-4,5.1E2,5.7E2,1.1602714E-1,6.382015E-1,5.1615825E0,6.1E2,4.1E2,5.1E2,3.491954E3,6.5E2,5.875544E-4,1.9667917E-3,1.1565638E2,8.334141E1,4.5E2,5.298367E1,3.731927E-2,4.261307E1,4.1E2,4.5E2,4.1E2,6.1E2,4.1E2,5.7E2,7.2978165E1,6.5E2,1.8360183E3,3.0833638E3,4.3E2,1.2429377E3,6.5E2,5.309454E3,5.7E2,5.2E2,5.9559822E1,4.8206745E1,7.431885E1,6.1253452E1,4.7385745E0,4.103205E1,5.4696536E0,2.9754839E1,1.6978304E1,2.3564894E1,1.4076175E1,1.817703E1,7.0660295E0,1.1842434E1,9.5803E0,4.633063E0,7.719353E0,4.811002E0,2.7372632E0,4.3260164E0,2.8134253E0,2.0137434E0,4.9815318E-1,2.817121E0,2.9311903E0,9.850403E-1,-1.3380176E-2,-3.9735058E-1,-1.4575028E-1,-7.3482436E-1,-2.9054493E-1,3.054469E-1,1.975078E0,1.3473547E0,1.1074656E0,5.7920617E-1,5.264272E-1,1.2707477E0,2.0643296E0,3.1375835E0],"split_indices":[0,0,0,0,0,0,1,2,0,0,0,1,2,2,0,2,2,0,0,0,1,2,1,0,1,0,0,0,0,1,0,0,0,2,2,2,1,2,1,0,1,0,0,2,0,1,0,2,2,0,0,0,0,0,0,0,0,0,0,0,0,0,0,0,0,0,0,0,0,0,0,0,0,0,0,0,0,0,0,0,0,0,0,0,0,0,0,0,0],"split_type":[0,0,0,0,0,0,0,0,0,0,0,0,0,0,0,0,0,0,0,0,0,0,0,0,0,0,0,0,0,0,0,0,0,0,0,0,0,0,0,0,0,0,0,0,0,0,0,0,0,0,0,0,0,0,0,0,0,0,0,0,0,0,0,0,0,0,0,0,0,0,0,0,0,0,0,0,0,0,0,0,0,0,0,0,0,0,0,0,0],"sum_hessian":[2.402705E6,1.443E3,2.401262E6,6.9E1,1.374E3,6.8906E4,2.332356E6,9.24E2,4.5E2,1.584E3,6.7322E4,1.018707E6,1.313649E6,8.27E2,9.7E1,2.47E2,2.03E2,3.03E2,1.281E3,7.196E3,6.0126E4,2.88112E5,7.30595E5,3.69022E5,9.44627E5,1.85E2,6.42E2,3.6E1,6.1E1,1.93E2,5.4E1,1.91E2,1.2E1,1.36E2,1.67E2,3.37E2,9.44E2,2.188E3,5.008E3,3.5747E4,2.4379E4,2.17083E5,7.1029E4,2.24666E5,5.05929E5,1.83614E5,1.85408E5,9.05756E5,3.8871E4,5.2E1,1.33E2,3.49E2,2.93E2,2E0,1.91E2,1E0,1.9E2,4.9E1,8.7E1,1.08E2,5.9E1,9.7E1,2.4E2,5.59E2,3.85E2,3.81E2,1.807E3,2.032E3,2.976E3,2.5421E4,1.0326E4,1.7006E4,7.373E3,5.616E4,1.60923E5,2.9862E4,4.1167E4,1.45747E5,7.8919E4,8.8926E4,4.17003E5,1.46851E5,3.6763E4,9.0875E4,9.4533E4,7.53176E5,1.5258E5,2.8337E4,1.0534E4],"tree_param":{"num_deleted":"0","num_feature":"3","num_nodes":"89","size_leaf_vector":"0"}},{"base_weights":[1.7033174E0,1.3569028E2,1.6293873E0,-2.1011688E-2,1.4314577E2,1.0066647E1,1.5656624E0,1.6952158E2,1.0952601E2,4.638548E1,9.017834E0,1.9272754E0,4.027429E-1,1.4927628E2,2.0420956E2,1.2573782E2,9.0648224E1,6.1211246E1,3.6624195E1,1.5054136E1,7.733307E0,1.1410717E0,2.5173066E0,7.691943E-1,-2.1408789E-1,1.6628027E2,1.4030345E2,1.9483475E2,3.2454767E2,1.1069508E2,1.4657901E2,8.57452E1,1.3979253E2,5.918055E1,8.792455E1,3.4633194E1,5.0649967E1,2.0614172E1,1.3414693E1,6.0109453E0,8.8684435E0,3.3979237E0,2.603195E-1,3.7430627E0,2.0530024E0,5.0654584E-1,1.6696744E0,-6.1914283E-1,1.1948656E-1,1.5778336E2,1.9136691E2,1.13213234E2,1.50189E2,2.2127522E2,1.7807135E2,3.4407855E2,1.1871078E2,3.758198E1,1.1217689E2,1.26818E2,1.6519537E2,6.3191116E1,9.051027E1,6.362392E1,5.078139E1,3.9578804E1,2.9826801E1,6.7538376E1,4.1556797E1,2.4335356E1,1.4849849E1,6.346434E0,1.4087261E1,2.7656124E0,9.267785E0,1.1157546E1,6.493634E0,4.5860515E0,-2.7157676E-1,5.2976694E0,8.833334E-2,4.4296894E0,2.6584566E0,1.8343217E0,5.6461434E0,9.13669E-1,-1.7199498E-1,1.3899567E0,3.3477366E0,-9.6383303E-1,-4.8125765E-1,6.029408E-1,-7.667878E-1],"categories":[],"categories_nodes":[],"categories_segments":[],"categories_sizes":[],"default_left":[true,true,true,false,true,true,true,true,true,true,true,true,true,true,true,true,true,true,true,true,true,true,true,true,true,true,true,true,true,true,true,true,false,true,false,true,true,true,true,true,true,true,true,true,true,true,true,true,true,false,false,false,false,false,false,false,false,false,false,false,false,false,false,false,false,false,false,false,false,false,false,false,false,false,false,false,false,false,false,false,false,false,false,false,false,false,false,false,false,false,false,false,false],"id":9,"left_children":[1,3,5,-1,7,9,11,13,15,17,19,21,23,25,27,29,31,33,35,37,39,41,43,45,47,49,51,53,55,57,59,61,-1,63,-1,65,67,69,71,73,75,77,79,81,83,85,87,89,91,-1,-1,-1,-1,-1,-1,-1,-1,-1,-1,-1,-1,-1,-1,-1,-1,-1,-1,-1,-1,-1,-1,-1,-1,-1,-1,-1,-1,-1,-1,-1,-1,-1,-1,-1,-1,-1,-1,-1,-1,-1,-1,-1,-1],"loss_changes":[2.3800188E7,1.340632E6,1.2911195E6,0E0,1.095188E6,6.852696E5,1.0022755E6,4.62508E5,1.584555E5,7.0841E4,1.3555162E5,8.43364E5,1.27786516E5,4.4871E4,2.25573E5,7.6573E4,5.0662E4,5.5916875E3,6.8189062E3,2.7698562E4,2.8157062E4,1.5493392E6,5.91085E5,8.387544E4,2.8467527E4,1.566E3,6.3069E4,6.6973E4,2.7497125E4,1.485175E4,2.35635E4,1.9966375E4,0E0,3.785375E3,0E0,5.2850625E3,2.7218203E3,1.4589344E4,1.11915625E4,6.059064E4,4.7195188E4,9.5392875E5,4.8572553E5,2.1247925E5,5.91873E5,7.584755E4,3.758453E4,4.521793E3,4.9506242E4,0E0,0E0,0E0,0E0,0E0,0E0,0E0,0E0,0E0,0E0,0E0,0E0,0E0,0E0,0E0,0E0,0E0,0E0,0E0,0E0,0E0,0E0,0E0,0E0,0E0,0E0,0E0,0E0,0E0,0E0,0E0,0E0,0E0,0E0,0E0,0E0,0E0,0E0,0E0,0E0,0E0,0E0,0E0,0E0],"parents":[2147483647,0,0,1,1,2,2,4,4,5,5,6,6,7,7,8,8,9,9,10,10,11,11,12,12,13,13,14,14,15,15,16,16,17,17,18,18,19,19,20,20,21,21,22,22,23,23,24,24,25,25,26,26,27,27,28,28,29,29,30,30,31,31,33,33,35,35,36,36,37,37,38,38,39,39,40,40,41,41,42,42,43,43,44,44,45,45,46,46,47,47,48,48],"right_children":[2,4,6,-1,8,10,12,14,16,18,20,22,24,26,28,30,32,34,36,38,40,42,44,46,48,50,52,54,56,58,60,62,-1,64,-1,66,68,70,72,74,76,78,80,82,84,86,88,90,92,-1,-1,-1,-1,-1,-1,-1,-1,-1,-1,-1,-1,-1,-1,-1,-1,-1,-1,-1,-1,-1,-1,-1,-1,-1,-1,-1,-1,-1,-1,-1,-1,-1,-1,-1,-1,-1,-1,-1,-1,-1,-1,-1,-1],"split_conditions":[4.888983E-2,2.5E-5,2.4817533E1,-6.3035064E-3,6.6972496E-3,2.9974306E-1,5.376471E3,4.9E2,2.0409506E-2,9.387243E-2,4.711013E0,5.5E2,6.5204707E3,3.0198978E-4,6.1E2,6.1E2,5.7E2,5.7E2,5.7E2,1.2615826E0,5.7E2,4.7E2,4.3E2,5.9E2,5.5E2,4.7E2,5.3E2,3.0650874E-4,4.012582E-3,4.7E2,1.057186E-2,5.1E2,4.193776E1,7.1068615E-2,2.6377367E1,1.5684226E-1,1.3488209E-1,6.1E2,1.5615826E0,1.4943041E1,6.3E2,4.1E2,1.3220892E2,3.164254E3,6.5E2,4.7E2,6.5E2,4.7E2,5.1E2,4.7335007E1,5.7410076E1,3.396397E1,4.50567E1,6.638257E1,5.3421406E1,1.0322357E2,3.5613235E1,1.1274595E1,3.365307E1,3.8045403E1,4.9558613E1,1.8957336E1,2.7153082E1,1.9087177E1,1.5234418E1,1.1873642E1,8.948041E0,2.0261513E1,1.246704E1,7.300607E0,4.4549546E0,1.9039303E0,4.2261786E0,8.296837E-1,2.7803357E0,3.347264E0,1.9480903E0,1.3758155E0,-8.147303E-2,1.5893009E0,2.6500003E-2,1.3289069E0,7.97537E-1,5.5029655E-1,1.6938431E0,2.7410072E-1,-5.1598497E-2,4.1698703E-1,1.004321E0,-2.891499E-1,-1.443773E-1,1.8088225E-1,-2.3003636E-1],"split_indices":[0,0,0,0,0,0,0,2,0,0,0,1,0,0,2,1,2,2,2,0,1,1,2,1,1,2,1,0,0,1,0,1,0,0,0,0,0,1,0,0,1,2,0,0,1,2,1,1,2,0,0,0,0,0,0,0,0,0,0,0,0,0,0,0,0,0,0,0,0,0,0,0,0,0,0,0,0,0,0,0,0,0,0,0,0,0,0,0,0,0,0,0,0],"split_type":[0,0,0,0,0,0,0,0,0,0,0,0,0,0,0,0,0,0,0,0,0,0,0,0,0,0,0,0,0,0,0,0,0,0,0,0,0,0,0,0,0,0,0,0,0,0,0,0,0,0,0,0,0,0,0,0,0,0,0,0,0,0,0,0,0,0,0,0,0,0,0,0,0,0,0,0,0,0,0,0,0,0,0,0,0,0,0,0,0,0,0,0,0],"sum_hessian":[2.402705E6,1.324E3,2.401381E6,6.9E1,1.255E3,1.8E4,2.383381E6,7.01E2,5.54E2,5.04E2,1.7496E4,1.818052E6,5.65329E5,4.46E2,2.55E2,2.95E2,2.59E2,1.98E2,3.06E2,3.068E3,1.4428E4,7.79452E5,1.0386E6,3.54641E5,2.10688E5,1.48E2,2.98E2,2.39E2,1.6E1,1.75E2,1.2E2,2.38E2,2.1E1,1.87E2,1.1E1,2.71E2,3.5E1,6.96E2,2.372E3,5.734E3,8.694E3,2.18798E5,5.60654E5,2.85329E5,7.53271E5,2.7456E5,8.0081E4,9.5149E4,1.15539E5,1.16E2,3.2E1,8.3E1,2.15E2,8.8E1,1.51E2,1.4E1,2E0,4E0,1.71E2,6.2E1,5.8E1,4.4E1,1.94E2,1.18E2,6.9E1,1.3E2,1.41E2,1E1,2.5E1,4.21E2,2.75E2,2.07E2,2.165E3,2.873E3,2.861E3,4.425E3,4.269E3,1.65282E5,5.3516E4,1.8509E4,5.42145E5,1.74718E5,1.10611E5,7.10058E5,4.3213E4,1.716E5,1.0296E5,6.8641E4,1.144E4,2.7185E4,6.7964E4,7.4759E4,4.078E4],"tree_param":{"num_deleted":"0","num_feature":"3","num_nodes":"93","size_leaf_vector":"0"}},{"base_weights":[1.19266E0,9.636739E1,1.1410178E0,-1.4798231E-2,1.0175668E2,3.371497E0,1.0050489E0,1.2263023E2,8.174463E1,3.1027353E1,3.2470453E0,4.332978E-1,1.4538214E0,1.1454904E2,1.8145508E2,5.625055E1,8.790704E1,4.3151237E1,2.4217289E1,7.8243876E0,2.8569252E0,9.7520745E-1,-5.275025E-1,1.789723E0,7.115072E-1,8.657311E1,1.19898834E2,1.6082918E2,2.477365E2,3.0494461E1,6.8315315E1,9.639877E1,6.1944115E1,4.1278896E1,6.6112816E1,2.1325356E1,3.4162445E1,3.2744203E0,8.690137E0,7.319115E0,2.3932078E0,2.9574277E0,7.251315E-1,-2.7534525E0,-7.1026266E-2,2.7347383E0,1.4255453E0,1.0270435E0,1.6116379E-1,9.131745E1,5.1812595E1,1.3636134E2,1.1309349E2,4.934043E1,9.298944E0,5.36676E1,8.01429E1,8.640464E1,1.1337102E2,5.9632275E1,9.901288E1,3.932994E1,5.955794E1,6.8337845E1,1.7481201E1,2.6945375E1,1.774967E1,3.2266293E1,4.909067E1,-3.2618572E1,3.4185927E0,9.585075E0,4.200782E0,1.2923968E1,6.5631695E0,1.9601964E0,5.389576E0,3.300159E0,2.5800383E-1,1.6806127E0,2.3687723E-1,-4.0304947E0,-5.9989876E-1,-1.0074923E0,1.6308957E-1,3.3566942E0,2.175485E0,1.077274E0,3.156184E0,8.3679885E-1,2.453814E0,5.0044656E-1,-4.6082333E-1],"categories":[],"categories_nodes":[],"categories_segments":[],"categories_sizes":[],"default_left":[true,true,true,false,true,true,true,true,true,true,true,true,true,true,true,true,true,true,true,true,true,true,true,true,true,true,true,false,false,true,true,true,true,true,true,true,true,true,true,true,true,true,true,true,true,true,true,true,true,false,false,false,false,false,false,false,false,false,false,false,false,false,false,false,false,false,false,false,false,false,false,false,false,false,false,false,false,false,false,false,false,false,false,false,false,false,false,false,false,false,false,false,false],"id":10,"left_children":[1,3,5,-1,7,9,11,13,15,17,19,21,23,25,27,29,31,33,35,37,39,41,43,45,47,49,51,-1,-1,53,55,57,59,61,63,65,67,69,71,73,75,77,79,81,83,85,87,89,91,-1,-1,-1,-1,-1,-1,-1,-1,-1,-1,-1,-1,-1,-1,-1,-1,-1,-1,-1,-1,-1,-1,-1,-1,-1,-1,-1,-1,-1,-1,-1,-1,-1,-1,-1,-1,-1,-1,-1,-1,-1,-1,-1,-1],"loss_changes":[1.1809277E7,6.76821E5,7.2828475E5,0E0,5.05446E5,4.7479125E5,5.8076375E5,2.6539E5,9.45025E4,4.9979812E4,2.4526312E5,5.182401E5,3.161905E5,6.9242E4,5.7222E4,3.7070156E4,1.060275E5,6.7721562E3,1.0718234E4,4.2463E4,2.6188894E5,3.1546394E5,3.6471734E5,3.004545E5,6.860261E4,9.9460625E3,3.43215E4,0E0,0E0,1.631809E4,1.0424906E4,5.48305E4,5.0649062E3,5.0319688E3,4.2847656E2,5.7714062E3,9.0696875E2,9.043178E3,3.6368E4,5.0398625E4,1.4875638E5,6.595781E4,2.6363166E5,1.67984E5,6.5303445E4,8.4463875E4,3.7982988E5,6.815347E4,3.0380885E4,0E0,0E0,0E0,0E0,0E0,0E0,0E0,0E0,0E0,0E0,0E0,0E0,0E0,0E0,0E0,0E0,0E0,0E0,0E0,0E0,0E0,0E0,0E0,0E0,0E0,0E0,0E0,0E0,0E0,0E0,0E0,0E0,0E0,0E0,0E0,0E0,0E0,0E0,0E0,0E0,0E0,0E0,0E0,0E0],"parents":[2147483647,0,0,1,1,2,2,4,4,5,5,6,6,7,7,8,8,9,9,10,10,11,11,12,12,13,13,14,14,15,15,16,16,17,17,18,18,19,19,20,20,21,21,22,22,23,23,24,24,25,25,26,26,29,29,30,30,31,31,32,32,33,33,34,34,35,35,36,36,37,37,38,38,39,39,40,40,41,41,42,42,43,43,44,44,45,45,46,46,47,47,48,48],"right_children":[2,4,6,-1,8,10,12,14,16,18,20,22,24,26,28,30,32,34,36,38,40,42,44,46,48,50,52,-1,-1,54,56,58,60,62,64,66,68,70,72,74,76,78,80,82,84,86,88,90,92,-1,-1,-1,-1,-1,-1,-1,-1,-1,-1,-1,-1,-1,-1,-1,-1,-1,-1,-1,-1,-1,-1,-1,-1,-1,-1,-1,-1,-1,-1,-1,-1,-1,-1,-1,-1,-1,-1,-1,-1,-1,-1,-1,-1],"split_conditions":[4.494915E-2,2.5E-5,1.9069205E2,-4.4394694E-3,4.054856E-3,4.114102E-1,5.5E2,5.7E2,5.3E2,9.387243E-2,4.7E2,4.3E2,4.8762705E3,4.1E2,6.1E2,4.1E2,2.5689736E-2,5.7E2,5.1E2,3.9988422E1,1.8711014E1,4.3E2,1.2429329E3,4.3E2,6.3532715E3,2.2538719E-3,1.742275E-4,4.8248756E1,7.432095E1,2.1071611E-2,1.6510993E-2,6.3E2,5.9E2,8.898132E-2,8.373077E-2,1.5716773E-1,6.1E2,5.2355576E-1,4.1E2,2.5610871E0,6.5E2,6.3969453E3,2.5251704E3,5.3E2,5.1E2,2.3188174E3,5.7E2,5.6E2,5.1E2,2.7395237E1,1.5543779E1,4.0908405E1,3.3928047E1,1.480213E1,2.7896833E0,1.610028E1,2.4042871E1,2.5921392E1,3.4011307E1,1.7889683E1,2.9703865E1,1.1798983E1,1.7867384E1,2.0501354E1,5.2443604E0,8.083613E0,5.324901E0,9.679888E0,1.4727202E1,-9.785572E0,1.0255779E0,2.8755226E0,1.2602346E0,3.8771906E0,1.9689509E0,5.8805895E-1,1.6168729E0,9.9004775E-1,7.7401154E-2,5.041838E-1,7.1063176E-2,-1.2091484E0,-1.7996964E-1,-3.022477E-1,4.8926875E-2,1.0070083E0,6.5264547E-1,3.231822E-1,9.4685525E-1,2.5103965E-1,7.3614424E-1,1.5013397E-1,-1.38247E-1],"split_indices":[0,0,0,0,0,0,1,2,1,0,1,2,0,2,2,2,0,2,2,0,0,1,0,2,0,0,0,0,0,0,0,1,2,0,0,0,2,0,2,0,1,0,0,1,1,0,2,2,2,0,0,0,0,0,0,0,0,0,0,0,0,0,0,0,0,0,0,0,0,0,0,0,0,0,0,0,0,0,0,0,0,0,0,0,0,0,0,0,0,0,0,0,0],"split_type":[0,0,0,0,0,0,0,0,0,0,0,0,0,0,0,0,0,0,0,0,0,0,0,0,0,0,0,0,0,0,0,0,0,0,0,0,0,0,0,0,0,0,0,0,0,0,0,0,0,0,0,0,0,0,0,0,0,0,0,0,0,0,0,0,0,0,0,0,0,0,0,0,0,0,0,0,0,0,0,0,0,0,0,0,0,0,0,0,0,0,0,0,0],"sum_hessian":[2.402705E6,1.302E3,2.401403E6,6.9E1,1.233E3,1.37976E5,2.263427E6,6.01E2,6.32E2,6.17E2,1.37359E5,9.95337E5,1.26809E6,5.31E2,7E1,1.25E2,5.07E2,2.2E2,3.97E2,1.0786E4,1.26573E5,6.36397E5,3.5894E5,8.73035E5,3.95055E5,8.8E1,4.43E2,5.6E1,1.4E1,4.1E1,8.4E1,3.8E2,1.27E2,2.06E2,1.4E1,3.1E2,8.7E1,1.725E3,9.061E3,1.1914E4,1.14659E5,7.1292E4,5.65105E5,6.1081E4,2.97859E5,2.4285E5,6.30185E5,2.51092E5,1.43963E5,7.6E1,1.2E1,1.24E2,3.19E2,2.1E1,2E1,4E1,4.4E1,2.43E2,1.37E2,1.22E2,5E0,1.89E2,1.7E1,1.3E1,1E0,1.18E2,1.92E2,8E1,7E0,6E0,1.719E3,7.554E3,1.507E3,1.414E3,1.05E4,1.00183E5,1.4476E4,6.326E4,8.032E3,1.91111E5,3.73994E5,3.8343E4,2.2738E4,5.9571E4,2.38288E5,1.14977E5,1.27873E5,5.24614E5,1.05571E5,2.21552E5,2.954E4,9.3151E4,5.0812E4],"tree_param":{"num_deleted":"0","num_feature":"3","num_nodes":"93","size_leaf_vector":"0"}},{"base_weights":[8.350725E-1,6.821637E1,7.989603E-1,-1.0422182E-2,7.2081436E1,3.3704832E0,7.3536056E-1,8.358305E1,5.3976864E1,2.4034595E1,3.179723E0,6.572118E-1,2.264249E0,7.257217E1,1.0328623E2,5.13767E1,1.1069168E2,3.2428696E1,1.9011623E1,4.5118876E0,1.2455485E0,6.834232E-1,-6.310254E0,3.9794905E0,9.687415E-1,6.4900925E1,7.931246E1,9.933629E1,2.0416379E2,6.3640015E1,4.6670033E1,-5.770874E0,3.285008E1,3.417689E0,2.0153885E1,9.439773E0,4.1770306E0,4.9840593E0,3.9797527E-1,5.790272E-1,2.1764708E0,-1.405906E1,-2.434023E0,4.384093E0,-2.7388322E0,-3.5747027E0,3.0742333E0,7.679402E1,5.168504E1,6.4541016E1,8.3816635E1,1.1676195E2,8.850436E1,3.5127045E1,9.995077E1,3.4717106E1,5.0610924E1,-6.8987427E0,-1.7575684E0,2.5954933E1,3.63376E1,4.5809082E1,-2.518305E0,4.9555965E1,1.8808128E1,6.796089E0,2.214956E1,3.1500173E0,5.013278E0,2.9224129E1,4.5961404E0,-3.2006114E0,2.02419E0,9.683319E-1,-1.722709E-2,4.6297045E0,-1.8442848E-1,-1.2586005E1,-1.4141059E1,8.998866E-1,-5.767059E0,7.247645E0,3.6696723E0,-3.0019648E0,-2.5676937E0,-4.4806237E0,-1.8973987E0,5.4202604E0,1.9837235E0],"categories":[],"categories_nodes":[],"categories_segments":[],"categories_sizes":[],"default_left":[true,true,true,false,true,true,true,true,true,true,true,true,true,true,true,true,false,true,true,true,true,true,true,true,true,true,true,true,false,true,true,true,true,true,true,true,true,true,true,true,true,true,true,true,true,true,true,false,false,false,false,false,false,false,false,false,false,false,false,false,false,false,false,false,false,false,false,false,false,false,false,false,false,false,false,false,false,false,false,false,false,false,false,false,false,false,false,false,false],"id":11,"left_children":[1,3,5,-1,7,9,11,13,15,17,19,21,23,25,27,29,-1,31,33,35,37,39,41,43,45,47,49,51,-1,53,55,57,59,61,63,65,67,69,71,73,75,77,79,81,83,85,87,-1,-1,-1,-1,-1,-1,-1,-1,-1,-1,-1,-1,-1,-1,-1,-1,-1,-1,-1,-1,-1,-1,-1,-1,-1,-1,-1,-1,-1,-1,-1,-1,-1,-1,-1,-1,-1,-1,-1,-1,-1,-1],"loss_changes":[5.846418E6,3.39385E5,3.9274588E5,0E0,2.49115E5,2.2839131E5,2.79997E5,1.536975E5,6.450775E4,2.1730031E4,1.4797081E5,4.071725E5,2.5322762E5,1.96715E4,8.491275E4,2.3407625E4,0E0,3.360625E3,5.8804375E3,5.6076812E4,7.422075E4,3.4620525E5,2.509479E5,1.3330412E5,6.210955E5,3.2181812E4,1.129025E4,3.7987E4,0E0,1.24869625E5,1.39760625E4,1.4544373E0,3.7460156E3,6.1546025E3,1.1373602E4,7.252769E4,2.7333875E4,4.0572008E4,1.1175769E5,4.81889E5,8.407209E5,1.585625E2,6.1910367E4,9.459275E4,1.1775195E2,3.1232531E4,1.1349369E5,0E0,0E0,0E0,0E0,0E0,0E0,0E0,0E0,0E0,0E0,0E0,0E0,0E0,0E0,0E0,0E0,0E0,0E0,0E0,0E0,0E0,0E0,0E0,0E0,0E0,0E0,0E0,0E0,0E0,0E0,0E0,0E0,0E0,0E0,0E0,0E0,0E0,0E0,0E0,0E0,0E0,0E0],"parents":[2147483647,0,0,1,1,2,2,4,4,5,5,6,6,7,7,8,8,9,9,10,10,11,11,12,12,13,13,14,14,15,15,17,17,18,18,19,19,20,20,21,21,22,22,23,23,24,24,25,25,26,26,27,27,29,29,30,30,31,31,32,32,33,33,34,34,35,35,36,36,37,37,38,38,39,39,40,40,41,41,42,42,43,43,44,44,45,45,46,46],"right_children":[2,4,6,-1,8,10,12,14,16,18,20,22,24,26,28,30,-1,32,34,36,38,40,42,44,46,48,50,52,-1,54,56,58,60,62,64,66,68,70,72,74,76,78,80,82,84,86,88,-1,-1,-1,-1,-1,-1,-1,-1,-1,-1,-1,-1,-1,-1,-1,-1,-1,-1,-1,-1,-1,-1,-1,-1,-1,-1,-1,-1,-1,-1,-1,-1,-1,-1,-1,-1,-1,-1,-1,-1,-1,-1],"split_conditions":[4.2836454E-2,2.5E-5,8.161655E1,-3.1266548E-3,7.9783965E-3,2.7893618E-1,6.5E2,4.9E2,5.9E2,8.067948E-2,6.1E2,5.9E2,7.135457E2,5.7E2,6.3E2,1.25392135E-2,3.3207504E1,4.5E2,8.898132E-2,5.511078E0,1.5710143E1,5.7E2,6.3E2,6.2E2,2.7636035E3,7.467638E-4,4.1E2,3.191049E-4,6.1249138E1,1.0560636E-2,4.1E2,6.973024E-2,5.2638777E-2,5.2E2,9.209435E-2,5.9E2,4.000893E1,4.948023E-1,6.3E2,4.7E2,6.1E2,9.707562E1,6.1E2,4.3E2,1.9066937E2,2.0431035E3,4.1713037E3,2.3038208E1,1.5505512E1,1.9362305E1,2.514499E1,3.5028587E1,2.6551308E1,1.0538114E1,2.9985231E1,1.04151325E1,1.5183278E1,-2.069623E0,-5.2727056E-1,7.7864804E0,1.090128E1,1.3742725E1,-7.5549155E-1,1.486679E1,5.642439E0,2.038827E0,6.6448684E0,9.4500524E-1,1.5039835E0,8.767239E0,1.3788421E0,-9.6018344E-1,6.07257E-1,2.9049957E-1,-5.1681274E-3,1.3889114E0,-5.5328548E-2,-3.7758017E0,-4.2423177E0,2.69966E-1,-1.7301177E0,2.1742935E0,1.1009017E0,-9.0058947E-1,-7.7030814E-1,-1.3441871E0,-5.6921965E-1,1.6260782E0,5.951171E-1],"split_indices":[0,0,0,0,0,0,1,2,2,0,1,2,0,1,2,0,0,1,0,0,0,2,1,2,0,0,2,0,0,0,2,0,0,1,0,1,0,0,1,2,1,0,2,2,0,0,0,0,0,0,0,0,0,0,0,0,0,0,0,0,0,0,0,0,0,0,0,0,0,0,0,0,0,0,0,0,0,0,0,0,0,0,0,0,0,0,0,0,0],"split_type":[0,0,0,0,0,0,0,0,0,0,0,0,0,0,0,0,0,0,0,0,0,0,0,0,0,0,0,0,0,0,0,0,0,0,0,0,0,0,0,0,0,0,0,0,0,0,0,0,0,0,0,0,0,0,0,0,0,0,0,0,0,0,0,0,0,0,0,0,0,0,0,0,0,0,0,0,0,0,0,0,0,0,0,0,0,0,0,0,0],"sum_hessian":[2.402705E6,1.286E3,2.401419E6,6.9E1,1.217E3,5.7958E4,2.343461E6,7.42E2,4.75E2,5.29E2,5.7429E4,2.229502E6,1.13959E5,4.79E2,2.63E2,4.56E2,1.9E1,1.96E2,3.33E2,3.4006E4,2.3423E4,2.221147E6,8.355E3,4.9035E4,6.4924E4,2.29E2,2.5E2,2.55E2,8E0,1.23E2,3.33E2,2E0,1.94E2,2.3E1,3.1E2,2.162E3,3.1844E4,4.328E3,1.9095E4,2.075992E6,1.45155E5,2.785E3,5.57E3,4.625E4,2.785E3,2.0559E4,4.4365E4,1.18E2,1.11E2,6.2E1,1.88E2,9.4E1,1.61E2,7E1,5.3E1,8.5E1,2.48E2,1E0,1E0,6.8E1,1.26E2,2E0,2.1E1,1.2E1,2.98E2,1.791E3,3.71E2,1.4294E4,1.755E4,6.7E1,4.261E3,5.943E3,1.3152E4,1.255956E6,8.20036E5,7.1185E4,7.397E4,1.55E2,2.63E3,2.785E3,2.785E3,9.233E3,3.7017E4,1.091E3,1.694E3,1.3348E4,7.211E3,1.4077E4,3.0288E4],"tree_param":{"num_deleted":"0","num_feature":"3","num_nodes":"89","size_leaf_vector":"0"}},{"base_weights":[5.847049E-1,4.5292683E1,5.577264E-1,5.2982235E1,3.1576603E1,7.448247E-1,-1.105765E-1,-7.340194E-3,5.724364E1,2.9081213E1,6.2660362E1,1.6599002E-1,1.0030406E0,5.8115415E-2,-5.790753E-1,5.5624084E1,1.2583224E2,3.5755146E1,2.4787634E1,8.157733E1,3.944985E1,1.5014821E0,-6.8392295E-1,1.5701535E0,6.7171705E-1,-2.538322E-1,3.1501248E-1,-1.3416023E0,-4.6610212E-1,3.8567394E1,5.9519085E1,1.6748172E2,8.031609E1,3.1717352E1,5.969381E1,2.7489481E1,1.8409681E1,2.7654026E1,4.5514626E1,2.2378004E0,-7.721048E-1,2.5054338E0,-8.945886E-1,2.2195354E0,1.1908125E0,4.9472335E-1,1.5656544E0,8.19146E-1,-4.32665E-1,6.1163294E-1,-2.2880057E-1,-9.3908024E-1,-1.7440196E0,-3.0265704E-1,-7.929484E-1,3.5068058E1,5.773444E1,5.769773E1,1.09196236E2,2.1124756E1,4.2712963E1,7.025215E1,4.1521404E1,2.1992216E1,3.1109606E1,1.1264588E1,2.472467E1,1.8027866E1,4.0897053E1,4.4625273E0,1.1651765E0,3.987868E0,-8.8510704E-1,1.5236975E1,2.3951495E0,-1.7414433E0,-3.8925287E-1,1.245774E0,2.9135165E0,2.2136428E0,1.6802846E-1,3.6839795E-1,2.1276321E0,4.291764E0,-3.0406576E-1,1.1704074E0,4.678188E-1,-1.2873276E0,-2.6172486E-1,1.3286904E-1,7.9116267E-1,-1.2818104E0,2.977195E-1,-4.750302E-1,-1.3889669E0,-1.6271052E0,-1.8565055E0,-4.7708058E-1,-2.8528623E-2,-9.9212277E-1,-3.9451116E-1],"categories":[],"categories_nodes":[],"categories_segments":[],"categories_sizes":[],"default_left":[true,true,true,true,true,true,true,false,true,true,true,true,true,true,true,true,true,true,true,false,true,true,true,true,true,true,true,true,true,true,true,false,false,true,true,true,true,true,false,true,true,true,true,true,true,true,true,true,true,true,true,true,true,true,true,false,false,false,false,false,false,false,false,false,false,false,false,false,false,false,false,false,false,false,false,false,false,false,false,false,false,false,false,false,false,false,false,false,false,false,false,false,false,false,false,false,false,false,false,false,false],"id":12,"left_children":[1,3,5,7,9,11,13,-1,15,17,19,21,23,25,27,29,31,33,35,-1,37,39,41,43,45,47,49,51,53,55,57,-1,-1,59,61,63,65,67,-1,69,71,73,75,77,79,81,83,85,87,89,91,93,95,97,99,-1,-1,-1,-1,-1,-1,-1,-1,-1,-1,-1,-1,-1,-1,-1,-1,-1,-1,-1,-1,-1,-1,-1,-1,-1,-1,-1,-1,-1,-1,-1,-1,-1,-1,-1,-1,-1,-1,-1,-1,-1,-1,-1,-1,-1,-1],"loss_changes":[2.8980132E6,1.511535E5,3.0024944E5,2.093265E5,3.8744844E4,2.8040094E5,4.150904E4,0E0,8.831E4,1.3040094E4,1.3466531E4,6.5688744E5,2.437615E5,3.0947217E4,1.1977676E4,5.35105E4,2.2567281E4,1.6278625E4,4.646375E3,0E0,1.00578125E2,3.7678772E5,2.3762142E5,1.1785E5,1.2956584E5,3.3464867E4,3.416025E4,2.9046406E3,6.4694688E3,8.6398125E3,5.540675E4,0E0,0E0,1.8082656E4,2.071664E3,3.4551875E3,3.8726367E3,4.100288E2,0E0,4.0569125E5,2.9619625E4,3.0731297E4,1.4196906E5,1.1921331E5,3.1593744E5,1.410019E5,6.898325E5,3.0741543E3,2.183899E4,1.1777949E4,4.1440203E4,1.8724243E3,1.1496094E2,3.860334E3,3.2034707E3,0E0,0E0,0E0,0E0,0E0,0E0,0E0,0E0,0E0,0E0,0E0,0E0,0E0,0E0,0E0,0E0,0E0,0E0,0E0,0E0,0E0,0E0,0E0,0E0,0E0,0E0,0E0,0E0,0E0,0E0,0E0,0E0,0E0,0E0,0E0,0E0,0E0,0E0,0E0,0E0,0E0,0E0,0E0,0E0,0E0,0E0],"parents":[2147483647,0,0,1,1,2,2,3,3,4,4,5,5,6,6,8,8,9,9,10,10,11,11,12,12,13,13,14,14,15,15,16,16,17,17,18,18,20,20,21,21,22,22,23,23,24,24,25,25,26,26,27,27,28,28,29,29,30,30,33,33,34,34,35,35,36,36,37,37,39,39,40,40,41,41,42,42,43,43,44,44,45,45,46,46,47,47,48,48,49,49,50,50,51,51,52,52,53,53,54,54],"right_children":[2,4,6,8,10,12,14,-1,16,18,20,22,24,26,28,30,32,34,36,-1,38,40,42,44,46,48,50,52,54,56,58,-1,-1,60,62,64,66,68,-1,70,72,74,76,78,80,82,84,86,88,90,92,94,96,98,100,-1,-1,-1,-1,-1,-1,-1,-1,-1,-1,-1,-1,-1,-1,-1,-1,-1,-1,-1,-1,-1,-1,-1,-1,-1,-1,-1,-1,-1,-1,-1,-1,-1,-1,-1,-1,-1,-1,-1,-1,-1,-1,-1,-1,-1,-1],"split_conditions":[7.1068615E-2,1.21174995E-2,5.505864E3,2.5E-5,5.7E2,5.3E2,6.751571E3,-2.2020584E-3,6.1E2,2.5117172E-2,2.8302643E-2,4.7E2,4.5E2,5.5E2,4.7E2,4.1E2,5.9494417E-4,5.1E2,4.7E2,2.44732E1,5.9E2,4.1E2,1.7450894E2,1.730929E3,5.7E2,4.5E2,5.1E2,4.5E2,4.9E2,6.5E2,1.0560636E-2,5.024452E1,2.409483E1,1.7907962E-2,1.9163443E-2,4.1E2,5.1E2,5.4605138E-2,1.3654388E1,1.6823184E3,1.2756372E2,1.3500979E0,2.0430458E3,5.7E2,5.7E2,6.3E2,6.1E2,4.3E2,4.7E2,4.1E2,5.7E2,6.972414E3,6.9718594E3,4.5E2,5.9E2,1.0520418E1,1.7320333E1,1.730932E1,3.2758873E1,6.337427E0,1.28138895E1,2.1075645E1,1.2456422E1,6.5976653E0,9.332882E0,3.3793766E0,7.4174013E0,5.40836E0,1.2269116E1,1.3387582E0,3.4955296E-1,1.1963605E0,-2.6553214E-1,4.5710926E0,7.1854484E-1,-5.22433E-1,-1.1677586E-1,3.737322E-1,8.7405497E-1,6.640929E-1,5.040854E-2,1.1051939E-1,6.382897E-1,1.2875292E0,-9.121973E-2,3.5112223E-1,1.4034565E-1,-3.861983E-1,-7.851746E-2,3.986071E-2,2.3734881E-1,-3.8454315E-1,8.9315854E-2,-1.4250907E-1,-4.1669008E-1,-4.8813158E-1,-5.569517E-1,-1.4312418E-1,-8.558587E-3,-2.9763684E-1,-1.1835335E-1],"split_indices":[0,0,0,0,2,1,0,0,2,0,0,1,2,1,1,2,0,2,2,0,2,2,0,0,2,1,2,1,2,1,0,0,0,0,0,2,2,0,0,0,0,0,0,1,1,1,1,1,1,2,1,0,0,2,1,0,0,0,0,0,0,0,0,0,0,0,0,0,0,0,0,0,0,0,0,0,0,0,0,0,0,0,0,0,0,0,0,0,0,0,0,0,0,0,0,0,0,0,0,0,0],"split_type":[0,0,0,0,0,0,0,0,0,0,0,0,0,0,0,0,0,0,0,0,0,0,0,0,0,0,0,0,0,0,0,0,0,0,0,0,0,0,0,0,0,0,0,0,0,0,0,0,0,0,0,0,0,0,0,0,0,0,0,0,0,0,0,0,0,0,0,0,0,0,0,0,0,0,0,0,0,0,0,0,0,0,0,0,0,0,0,0,0,0,0,0,0,0,0,0,0,0,0,0,0],"sum_hessian":[2.402705E6,1.448E3,2.401257E6,9.26E2,5.22E2,1.87604E6,5.25217E5,6.9E1,8.57E2,4.85E2,3.7E1,5.78727E5,1.297313E6,3.8617E5,1.39047E5,8.39E2,1.8E1,1.87E2,2.98E2,1.9E1,1.8E1,2.25069E5,3.53658E5,4.78419E5,8.18894E5,1.74399E5,2.11771E5,1.7941E4,1.21106E5,1.58E2,6.81E2,8E0,1E1,1.62E2,2.5E1,2.07E2,9.1E1,8E0,1E1,1.7001E5,5.5059E4,2.1912E4,3.31746E5,1.76415E5,3.02004E5,6.83556E5,1.35338E5,2.4914E4,1.49485E5,1.37029E5,7.4742E4,8.971E3,8.97E3,8.0735E4,4.0371E4,1.36E2,2.2E1,6.59E2,2.2E1,8.4E1,7.8E1,1.4E1,1.1E1,8.5E1,1.22E2,4.4E1,4.7E1,6E0,2E0,5.5303E4,1.14707E5,1.276E3,5.3783E4,1.87E2,2.1725E4,1.23978E5,2.07768E5,7.3411E4,1.03004E5,1.50998E5,1.51006E5,6.34473E5,4.9083E4,5.5059E4,8.0279E4,1.2457E4,1.2457E4,2.4914E4,1.24571E5,3.7371E4,9.9658E4,2.4914E4,4.9828E4,4.417E3,4.554E3,4.406E3,4.564E3,4.934E4,3.1395E4,2.6915E4,1.3456E4],"tree_param":{"num_deleted":"0","num_feature":"3","num_nodes":"101","size_leaf_vector":"0"}},{"base_weights":[4.0941676E-1,3.4278618E1,3.917024E-1,-5.169594E-3,3.627153E1,4.9880177E-1,-2.093656E-1,3.334575E1,6.299708E1,5.217389E0,4.8391557E-1,-4.3756735E-1,-2.1434927E-2,3.8772934E1,2.4131147E1,8.881923E1,4.876484E1,1.4334741E1,4.3965297E0,1.00850575E-1,6.558974E-1,-3.124584E-1,-7.503264E-1,1.7963909E-1,-3.9005598E-1,2.4464174E1,4.1256714E1,1.624778E0,2.7639006E1,7.859421E1,1.4467549E2,3.5118877E1,7.139103E1,-1.690332E1,1.5092497E1,7.109125E0,3.1803544E0,9.700073E-1,-4.5517537E-1,9.879327E-1,3.7518147E-1,-4.8849803E-1,9.827793E-2,-5.3043044E-1,-1.4098753E0,4.222169E-1,-2.2504173E-2,-1.0876138E0,-4.1253872E-2,3.3990406E1,1.5495605E0,5.1222424E1,3.835529E1,2.240742E1,-1.921589E1,5.724465E1,2.3471542E1,2.9121561E1,4.5047695E1,7.776839E1,4.114917E1,2.822876E-1,-2.208723E1,3.59351E1,1.4225138E1,8.157338E0,-2.853611E0,2.1688299E-1,5.290784E0,1.4763271E0,-5.8959204E-1,1.4277288E0,-5.917535E-1,5.847467E-1,1.2496442E0,4.0625635E-1,-2.9536176E0,-3.9114382E-2,-6.6825235E-1,3.235213E-1,-1.4352747E-2,-1.7162906E-1,-7.0980847E-1,-1.2885942E0,-1.4466264E0,5.0735784E-1,8.1631534E-2,-1.6691807E-1,6.995672E-1,-1.2918933E-1,-2.0459454E0,-1.9868533E-1,4.3100372E-1],"categories":[],"categories_nodes":[],"categories_segments":[],"categories_sizes":[],"default_left":[true,true,true,false,true,true,true,true,true,true,true,true,true,true,true,true,true,true,true,true,true,true,true,true,true,true,true,true,true,false,false,true,true,true,true,true,true,true,true,true,true,true,true,true,true,true,true,true,true,false,false,false,false,false,false,false,false,false,false,false,false,false,false,false,false,false,false,false,false,false,false,false,false,false,false,false,false,false,false,false,false,false,false,false,false,false,false,false,false,false,false,false,false],"id":13,"left_children":[1,3,5,-1,7,9,11,13,15,17,19,21,23,25,27,29,31,33,35,37,39,41,43,45,47,49,51,53,55,-1,-1,57,59,61,63,65,67,69,71,73,75,77,79,81,83,85,87,89,91,-1,-1,-1,-1,-1,-1,-1,-1,-1,-1,-1,-1,-1,-1,-1,-1,-1,-1,-1,-1,-1,-1,-1,-1,-1,-1,-1,-1,-1,-1,-1,-1,-1,-1,-1,-1,-1,-1,-1,-1,-1,-1,-1,-1],"loss_changes":[1.4415395E6,8.5815875E4,1.545911E5,0E0,9.07145E4,1.431691E5,1.5575495E4,5.2674375E4,3.8299562E4,4.790983E4,1.3385931E5,6.417619E3,1.4762277E4,2.2909E4,3.153475E4,1.1474594E4,2.1267047E4,1.2776992E4,1.9382055E4,3.0425747E5,1.3070331E5,8.471114E3,6.7958945E3,6.3192583E3,1.7103652E4,2.2212906E4,1.45745625E4,2.4252402E4,4.1346E4,0E0,0E0,1.6654531E3,2.2000625E3,1.1643877E3,8.835156E3,1.9029664E4,2.5409652E4,1.9396012E5,9.873902E4,6.7786375E4,7.860342E4,6.6244707E3,8.917106E2,2.2619766E3,5.036328E1,1.6985615E3,7.330278E3,2.1522678E4,3.4843396E3,0E0,0E0,0E0,0E0,0E0,0E0,0E0,0E0,0E0,0E0,0E0,0E0,0E0,0E0,0E0,0E0,0E0,0E0,0E0,0E0,0E0,0E0,0E0,0E0,0E0,0E0,0E0,0E0,0E0,0E0,0E0,0E0,0E0,0E0,0E0,0E0,0E0,0E0,0E0,0E0,0E0,0E0,0E0,0E0],"parents":[2147483647,0,0,1,1,2,2,4,4,5,5,6,6,7,7,8,8,9,9,10,10,11,11,12,12,13,13,14,14,15,15,16,16,17,17,18,18,19,19,20,20,21,21,22,22,23,23,24,24,25,25,26,26,27,27,28,28,31,31,32,32,33,33,34,34,35,35,36,36,37,37,38,38,39,39,40,40,41,41,42,42,43,43,44,44,45,45,46,46,47,47,48,48],"right_children":[2,4,6,-1,8,10,12,14,16,18,20,22,24,26,28,30,32,34,36,38,40,42,44,46,48,50,52,54,56,-1,-1,58,60,62,64,66,68,70,72,74,76,78,80,82,84,86,88,90,92,-1,-1,-1,-1,-1,-1,-1,-1,-1,-1,-1,-1,-1,-1,-1,-1,-1,-1,-1,-1,-1,-1,-1,-1,-1,-1,-1,-1,-1,-1,-1,-1,-1,-1,-1,-1,-1,-1,-1,-1,-1,-1,-1,-1],"split_conditions":[3.823764E-2,2.5E-5,6.028561E3,-1.5508783E-3,5.7E2,8.720806E0,5.5E2,8.282285E-3,5.6264165E-4,2.4764976E-1,5.3E2,5.3E2,5.1E2,5.1E2,1.0537452E-2,6.3E2,6.5E2,3.982876E-2,4.3E2,4.7E2,4.7E2,5.1E2,4.9E2,5.7E2,5.7E2,1.8850439E-3,1.742275E-4,4.5E2,1.21174995E-2,2.3578262E1,4.340265E1,1.1671992E-2,1.8315615E-2,5.7E2,4.2836454E-2,6.5E2,5.9E2,4.1E2,2.1190894E2,4.1E2,6.1E2,4.5E2,4.3E2,4.1E2,6.3018325E3,4.9E2,6.3E2,5.3E2,6.2E2,1.0197123E1,4.648682E-1,1.5366728E1,1.1506587E1,6.722226E0,-5.7647676E0,1.7173397E1,7.041463E0,8.736468E0,1.3514309E1,2.3330517E1,1.2344751E1,8.468628E-2,-6.6261697E0,1.0780531E1,4.2675414E0,2.4472015E0,-8.5608333E-1,6.50649E-2,1.5872352E0,4.4289812E-1,-1.7687762E-1,4.2831865E-1,-1.7752606E-1,1.7542402E-1,3.7489325E-1,1.2187691E-1,-8.8608533E-1,-1.1734315E-2,-2.0047571E-1,9.705639E-2,-4.305824E-3,-5.148872E-2,-2.1294256E-1,-3.865783E-1,-4.3398795E-1,1.5220736E-1,2.448946E-2,-5.0075423E-2,2.0987017E-1,-3.87568E-2,-6.1378366E-1,-5.9605602E-2,1.2930112E-1],"split_indices":[0,0,0,0,2,0,1,0,0,0,1,1,2,1,0,2,1,0,2,1,2,1,2,1,1,0,0,2,0,0,0,0,0,1,0,1,1,2,0,2,2,1,2,2,0,2,1,2,1,0,0,0,0,0,0,0,0,0,0,0,0,0,0,0,0,0,0,0,0,0,0,0,0,0,0,0,0,0,0,0,0,0,0,0,0,0,0,0,0,0,0,0,0],"split_type":[0,0,0,0,0,0,0,0,0,0,0,0,0,0,0,0,0,0,0,0,0,0,0,0,0,0,0,0,0,0,0,0,0,0,0,0,0,0,0,0,0,0,0,0,0,0,0,0,0,0,0,0,0,0,0,0,0,0,0,0,0,0,0,0,0,0,0,0,0,0,0,0,0,0,0,0,0,0,0,0,0,0,0,0,0,0,0,0,0,0,0,0,0],"sum_hessian":[2.402705E6,1.255E3,2.40145E6,6.9E1,1.186E3,2.038268E6,3.63182E5,1.071E3,1.15E2,6.409E3,2.031859E6,1.64017E5,1.99165E5,6.72E2,3.99E2,3.9E1,7.6E1,5.28E2,5.881E3,6.29574E5,1.402285E6,1.17155E5,4.6862E4,1.2887E5,7.0295E4,1.01E2,5.71E2,5.4E1,3.45E2,3.5E1,4E0,4.9E1,2.7E1,1.2E1,5.16E2,1.819E3,4.062E3,2.45624E5,3.8395E5,6.42419E5,7.59866E5,8.2007E4,3.5148E4,3.5146E4,1.1716E4,5.8576E4,7.0294E4,2.3432E4,4.6863E4,7.1E1,3E1,1.25E2,4.46E2,2.7E1,2.7E1,4.1E1,3.04E2,3.3E1,1.6E1,2.1E1,6E0,3E0,9E0,1.9E1,4.97E2,1.646E3,1.73E2,1.69E3,2.372E3,1.85426E5,6.0198E4,2.5966E4,3.57984E5,2.52865E5,3.89554E5,7.52839E5,7.027E3,2.3431E4,5.8576E4,1.1716E4,2.3432E4,1.1715E4,2.3431E4,2.733E3,8.983E3,4.6861E4,1.1715E4,5.8579E4,1.1715E4,1.1716E4,1.1716E4,3.5147E4,1.1716E4],"tree_param":{"num_deleted":"0","num_feature":"3","num_nodes":"93","size_leaf_vector":"0"}},{"base_weights":[2.866742E-1,2.2273716E1,2.7302155E-1,1.8799583E1,3.2901035E1,4.8940402E-1,7.096809E-2,2.3398632E1,1.3317378E1,3.087663E1,7.5255104E1,3.843582E-1,1.7512347E0,2.2864752E-2,1.5140522E0,-3.6182571E-3,2.5393856E1,-1.3911804E1,1.4386324E1,-3.51775E-3,3.274251E1,-1.8468187E-3,8.0272354E1,7.6677555E-1,-1.8671261E-1,5.106204E0,-1.2383899E-1,1.2509966E0,-1.9486135E-2,3.173193E0,9.789403E-1,3.307672E1,2.1929586E1,-4.94429E0,-3.982549E1,-2.4170166E1,1.5066533E1,3.7844585E1,1.8444231E1,1.08774414E2,5.5143883E1,-2.3900501E-1,8.8346195E-1,-3.8468787E-1,1.3469753E0,9.439173E0,2.2904618E0,-8.650896E0,1.1053596E0,1.9309725E0,3.0695018E-1,-5.8446044E-1,1.2789716E-1,3.3304384E0,2.5262055E0,1.1580287E0,-4.801252E-1,2.5324522E1,4.8408836E1,1.5731115E1,2.9034271E1,-1.1386099E1,1.7227661E1,-3.513855E1,-1.6750488E0,2.9942793E1,1.3454228E1,3.532498E1,5.5219425E1,2.5786724E1,1.4273696E1,2.209557E0,-6.96343E-1,2.8549266E0,6.276704E-1,-7.63455E-1,3.735251E-1,3.055026E-1,3.84786E0,1.0183492E1,7.979978E0,4.5114923E0,1.7088621E0,1.1662198E0,-9.590517E0,3.553594E-1,3.8203492E0,5.625488E-1,2.0833192E0,6.0077447E-1,-7.4702865E-1,-9.3404084E-1,-2.348723E-1,2.372011E-1,-2.655944E-1,3.7298427E0,3.2155063E0,2.721288E0,2.320319E0,1.4044998E0,8.582858E-1,-7.0593305E-2,-8.8129205E-1],"categories":[],"categories_nodes":[],"categories_segments":[],"categories_sizes":[],"default_left":[true,true,true,true,true,true,true,true,true,true,true,true,true,true,true,false,true,true,true,false,true,false,true,true,true,true,true,true,true,true,true,true,true,true,false,true,true,true,true,false,false,true,true,true,true,true,true,true,true,true,true,true,true,true,true,true,true,false,false,false,false,false,false,false,false,false,false,false,false,false,false,false,false,false,false,false,false,false,false,false,false,false,false,false,false,false,false,false,false,false,false,false,false,false,false,false,false,false,false,false,false,false,false],"id":14,"left_children":[1,3,5,7,9,11,13,15,17,19,21,23,25,27,29,-1,31,33,35,-1,37,-1,39,41,43,45,47,49,51,53,55,57,59,61,-1,63,65,67,69,-1,-1,71,73,75,77,79,81,83,85,87,89,91,93,95,97,99,101,-1,-1,-1,-1,-1,-1,-1,-1,-1,-1,-1,-1,-1,-1,-1,-1,-1,-1,-1,-1,-1,-1,-1,-1,-1,-1,-1,-1,-1,-1,-1,-1,-1,-1,-1,-1,-1,-1,-1,-1,-1,-1,-1,-1,-1,-1],"loss_changes":[7.212416E5,5.443025E4,1.04983125E5,2.8078125E4,2.9057844E4,1.5369034E5,8.619686E4,2.8529375E4,1.5219109E4,2.0224281E4,6.0414766E3,2.3375914E5,5.605625E5,6.2501746E4,3.555965E4,0E0,1.4259156E4,4.450718E3,1.3398719E4,0E0,2.3448719E4,0E0,4.744953E3,7.523856E4,1.3035078E5,3.8974862E5,5.9914994E5,2.5713148E4,9.672492E4,9.8534375E2,7.915125E3,1.9336453E4,1.6762203E4,2.4813955E3,0E0,2.1617568E3,1.1325828E4,8.687375E3,2.357295E3,0E0,0E0,7.463197E4,2.8967966E5,1.0919504E5,1.27835375E5,1.358525E4,2.5007047E4,6.644506E4,1.0173136E5,4.853164E3,5.194789E3,2.9370547E4,3.9624516E4,3.4858594E2,7.05625E1,1.991875E3,5.440683E2,0E0,0E0,0E0,0E0,0E0,0E0,0E0,0E0,0E0,0E0,0E0,0E0,0E0,0E0,0E0,0E0,0E0,0E0,0E0,0E0,0E0,0E0,0E0,0E0,0E0,0E0,0E0,0E0,0E0,0E0,0E0,0E0,0E0,0E0,0E0,0E0,0E0,0E0,0E0,0E0,0E0,0E0,0E0,0E0,0E0,0E0],"parents":[2147483647,0,0,1,1,2,2,3,3,4,4,5,5,6,6,7,7,8,8,9,9,10,10,11,11,12,12,13,13,14,14,16,16,17,17,18,18,20,20,22,22,23,23,24,24,25,25,26,26,27,27,28,28,29,29,30,30,31,31,32,32,33,33,35,35,36,36,37,37,38,38,41,41,42,42,43,43,44,44,45,45,46,46,47,47,48,48,49,49,50,50,51,51,52,52,53,53,54,54,55,55,56,56],"right_children":[2,4,6,8,10,12,14,16,18,20,22,24,26,28,30,-1,32,34,36,-1,38,-1,40,42,44,46,48,50,52,54,56,58,60,62,-1,64,66,68,70,-1,-1,72,74,76,78,80,82,84,86,88,90,92,94,96,98,100,102,-1,-1,-1,-1,-1,-1,-1,-1,-1,-1,-1,-1,-1,-1,-1,-1,-1,-1,-1,-1,-1,-1,-1,-1,-1,-1,-1,-1,-1,-1,-1,-1,-1,-1,-1,-1,-1,-1,-1,-1,-1,-1,-1,-1,-1,-1],"split_conditions":[8.297703E-2,5.1E2,3.1945618E3,8.857357E-3,6.3E2,5.7E2,6.5E2,2.5E-5,9.968702E-3,2.5E-5,2.5E-5,4.7E2,6.1E2,4.3E2,4.1713037E3,-1.0854772E-3,3.0447415E-4,4.7E2,4.5E2,-1.055325E-3,1.9581184E-2,-5.5404566E-4,1.1805503E-3,4.5E2,6.3E2,1.2582104E3,6.3E2,5.5229453E3,5.1E2,3.9800034E3,6.869004E3,4.7E2,2.9432997E-3,9.6391365E-3,-1.1947647E1,3.937827E-2,1.21174995E-2,1.0958939E-2,2.9938275E-2,3.2632324E1,1.6543165E1,3.9050192E2,4.7E2,2.0430725E3,5.1E2,8.3281055E2,1.6599104E3,3.1483465E1,6.5E2,3.4278452E3,6.834545E3,4.1E2,5.3E2,3.3694036E3,4.0776035E3,5.651504E3,7.0329033E3,7.597357E0,1.4522652E1,4.7193346E0,8.710281E0,-3.41583E0,5.1682987E0,-1.0541565E1,-5.0251466E-1,8.982839E0,4.0362687E0,1.0597495E1,1.6565828E1,7.7360177E0,4.282109E0,6.628671E-1,-2.0890291E-1,8.5647804E-1,1.8830113E-1,-2.290365E-1,1.1205754E-1,9.1650784E-2,1.154358E0,3.0550478E0,2.3939936E0,1.3534477E0,5.1265866E-1,3.4986597E-1,-2.8771553E0,1.06607825E-1,1.1461048E0,1.6876465E-1,6.2499577E-1,1.8023235E-1,-2.241086E-1,-2.8021225E-1,-7.046169E-2,7.116033E-2,-7.967832E-2,1.1189529E0,9.6465194E-1,8.163864E-1,6.960957E-1,4.2134994E-1,2.5748575E-1,-2.1177992E-2,-2.6438764E-1],"split_indices":[0,2,0,0,2,2,1,0,0,0,0,2,1,1,0,0,0,2,1,0,0,0,0,1,1,0,1,0,1,0,0,2,0,0,0,0,0,0,0,0,0,0,1,0,2,0,0,0,1,0,0,2,2,0,0,0,0,0,0,0,0,0,0,0,0,0,0,0,0,0,0,0,0,0,0,0,0,0,0,0,0,0,0,0,0,0,0,0,0,0,0,0,0,0,0,0,0,0,0,0,0,0,0],"split_type":[0,0,0,0,0,0,0,0,0,0,0,0,0,0,0,0,0,0,0,0,0,0,0,0,0,0,0,0,0,0,0,0,0,0,0,0,0,0,0,0,0,0,0,0,0,0,0,0,0,0,0,0,0,0,0,0,0,0,0,0,0,0,0,0,0,0,0,0,0,0,0,0,0,0,0,0,0,0,0,0,0,0,0,0,0,0,0,0,0,0,0,0,0,0,0,0,0,0,0,0,0,0,0],"sum_hessian":[2.402705E6,1.49E3,2.401215E6,1.125E3,3.65E2,1.159493E6,1.241722E6,6.1E2,5.15E2,3.5E2,1.5E1,1.070386E6,8.9107E4,1.201667E6,4.0055E4,4.8E1,5.62E2,1.9E1,4.96E2,2E1,3.3E2,1E0,1.4E1,6.41084E5,4.29302E5,3.1946E4,5.7161E4,4.0056E4,1.161611E6,9.767E3,3.0288E4,1.72E2,3.9E2,1.5E1,4E0,8E0,4.88E2,2.42E2,8.8E1,5E0,9E0,6.6644E4,5.7444E5,3.80222E5,4.908E4,1.2582E4,1.9364E4,7.201E3,4.996E4,2.3284E4,1.6772E4,2.40331E5,9.2128E5,7.854E3,1.913E3,2.6977E4,3.311E3,1.16E2,5.6E1,2.1E2,1.8E2,1.2E1,3E0,5E0,3E0,4.6E1,4.42E2,2.14E2,2.8E1,3E1,5.8E1,1.0488E4,5.6156E4,6.5971E4,5.08469E5,2.53557E5,1.26665E5,3.4651E4,1.4429E4,8.328E3,4.254E3,4.017E3,1.5347E4,6.29E2,6.572E3,3.9147E4,1.0813E4,2.333E3,2.0951E4,1.3116E4,3.656E3,1.20166E5,1.20165E5,7.21001E5,2.00279E5,1.748E3,6.106E3,9.76E2,9.37E2,1.4802E4,1.2175E4,1.639E3,1.672E3],"tree_param":{"num_deleted":"0","num_feature":"3","num_nodes":"103","size_leaf_vector":"0"}},{"base_weights":[2.0072544E-1,1.5090993E1,1.9044936E-1,6.477026E0,1.7835995E1,1.0353122E0,1.5901151E-1,1.6638387E0,1.2170564E1,1.7043346E1,4.7622227E1,1.7477794E0,-1.9162567E-2,-9.1527596E-2,2.737714E-1,1.3447186E1,-2.466926E0,9.748683E0,1.9224277E1,1.9460306E1,9.752699E0,-1.9259681E-3,5.0797234E1,5.5897512E0,1.6439718E0,-1.7705599E0,7.8885806E-1,3.164141E-1,-3.5704538E-1,4.164903E-1,-3.7360113E-2,-2.3183646E-3,1.5643071E1,-1.2588046E1,1.9938012E0,4.0702677E0,1.3308261E1,6.813704E0,2.2058912E1,-2.571816E-3,2.0699265E1,4.8814964E0,1.4026144E1,8.1458496E1,3.9737816E1,-5.2464466E0,7.5645547E0,1.5571438E0,5.226584E0,2.2482135E0,-3.38977E0,1.1367966E0,-2.2670252E0,7.1148914E-1,-8.887853E-1,-1.0533432E0,-6.204391E-2,6.9817287E-1,2.522215E-1,-1.1069521E-1,6.5932643E-1,2.2578398E1,1.1596295E1,-1.9053734E1,-3.4949407E-2,-8.512487E0,7.5705714E0,9.306313E0,-1.5467753E1,2.6717701E1,6.946173E0,9.910861E0,1.734375E0,3.0317713E1,1.1656972E1,1.6578423E1,2.587981E1,6.7625384E0,-1.6530264E1,3.48359E1,1.2583782E1,2.781068E1,4.627072E1,-1.2864769E0,-4.2603836E1,1.8844553E1,5.2268896E0,1.6743509E0,-3.1650233E0,-8.385701E0,5.986252E0,3.6895823E0,5.052783E-1,-2.3813434E0,-6.9286537E0,3.2173955E-1,2.3648493E0,2.1745348E0,-3.528141E0,2.2722347E0,1.5152349E-1,-1.7291732E0,-5.75629E-1,2.863559E-1,-1.6400313E0,-7.928999E-1,3.033897E-1,9.9582446E-1,2.522744E-1,2.7257663E-1,-2.6606061E0,1.3456789E-2,-3.2352337E-1,1.2486328E0,3.7642863E-1],"categories":[],"categories_nodes":[],"categories_segments":[],"categories_sizes":[],"default_left":[true,true,true,true,true,true,true,true,true,true,true,true,true,true,true,true,true,true,true,true,true,false,true,true,true,true,true,true,true,true,true,false,true,true,true,true,true,true,true,false,true,true,true,false,true,true,true,true,true,true,true,true,true,true,true,true,true,true,true,true,true,false,false,false,false,false,false,false,false,false,false,false,false,false,false,false,false,false,false,false,false,false,false,false,false,false,false,false,false,false,false,false,false,false,false,false,false,false,false,false,false,false,false,false,false,false,false,false,false,false,false,false,false,false,false],"id":15,"left_children":[1,3,5,7,9,11,13,15,17,19,21,23,25,27,29,31,33,35,37,39,41,-1,43,45,47,49,51,53,55,57,59,-1,61,63,65,67,69,71,73,-1,75,77,79,-1,81,83,85,87,89,91,93,95,97,99,101,103,105,107,109,111,113,-1,-1,-1,-1,-1,-1,-1,-1,-1,-1,-1,-1,-1,-1,-1,-1,-1,-1,-1,-1,-1,-1,-1,-1,-1,-1,-1,-1,-1,-1,-1,-1,-1,-1,-1,-1,-1,-1,-1,-1,-1,-1,-1,-1,-1,-1,-1,-1,-1,-1,-1,-1,-1,-1],"loss_changes":[3.6764362E5,3.9064844E4,6.3773305E4,1.0996184E4,2.8842531E4,6.471442E4,6.6558E4,1.0692831E4,2.9559082E3,2.1396188E4,4.8387266E3,2.0492875E4,4.9155746E4,7.877146E4,7.049969E4,1.6834492E3,7.38415E3,2.7554053E3,1.4679512E3,2.2160562E4,6.322293E3,0E0,6.9358906E3,2.8971629E4,1.5562516E4,7.1366E4,2.5275188E4,1.3652117E5,9.048625E4,5.0362406E4,2.5508312E4,0E0,1.1133945E3,4.0575542E3,6.7438364E3,5.7705557E3,7.0659365E3,1.4012561E2,2.825166E3,0E0,1.8015812E4,5.951868E3,4.4541074E3,0E0,5.8323047E2,3.0863422E4,3.0067473E4,2.7054547E4,1.2293727E4,7.9116055E3,2.7880062E4,2.135915E4,1.3618884E4,1.8871994E5,1.862795E4,1.0303847E5,8.264126E4,5.3211062E4,4.0762664E4,1.1935741E4,7.92659E3,0E0,0E0,0E0,0E0,0E0,0E0,0E0,0E0,0E0,0E0,0E0,0E0,0E0,0E0,0E0,0E0,0E0,0E0,0E0,0E0,0E0,0E0,0E0,0E0,0E0,0E0,0E0,0E0,0E0,0E0,0E0,0E0,0E0,0E0,0E0,0E0,0E0,0E0,0E0,0E0,0E0,0E0,0E0,0E0,0E0,0E0,0E0,0E0,0E0,0E0,0E0,0E0,0E0,0E0],"parents":[2147483647,0,0,1,1,2,2,3,3,4,4,5,5,6,6,7,7,8,8,9,9,10,10,11,11,12,12,13,13,14,14,15,15,16,16,17,17,18,18,19,19,20,20,22,22,23,23,24,24,25,25,26,26,27,27,28,28,29,29,30,30,32,32,33,33,34,34,35,35,36,36,37,37,38,38,40,40,41,41,42,42,44,44,45,45,46,46,47,47,48,48,49,49,50,50,51,51,52,52,53,53,54,54,55,55,56,56,57,57,58,58,59,59,60,60],"right_children":[2,4,6,8,10,12,14,16,18,20,22,24,26,28,30,32,34,36,38,40,42,-1,44,46,48,50,52,54,56,58,60,-1,62,64,66,68,70,72,74,-1,76,78,80,-1,82,84,86,88,90,92,94,96,98,100,102,104,106,108,110,112,114,-1,-1,-1,-1,-1,-1,-1,-1,-1,-1,-1,-1,-1,-1,-1,-1,-1,-1,-1,-1,-1,-1,-1,-1,-1,-1,-1,-1,-1,-1,-1,-1,-1,-1,-1,-1,-1,-1,-1,-1,-1,-1,-1,-1,-1,-1,-1,-1,-1,-1,-1,-1,-1,-1],"split_conditions":[1.5054032E-1,4.1E2,1.2160304E2,5.9E2,6.1E2,6.1E2,5.3E2,1.5431822E-3,6.5E2,3.037257E-2,2.5E-5,3.3110776E0,6.3E2,4.7E2,4.822671E3,2.5E-5,5.1E2,1.0504281E-2,4.7818837E-3,2.5E-5,5.748202E-2,-5.7779043E-4,2.9999999E-4,5.332171E-1,5.7E2,3.5014816E1,6.1E2,4.1E2,2.0430458E3,4.5E2,6.2E2,-6.9550937E-4,1.25E-4,5.782289E-2,1.7810207E-2,8.608304E-3,3.989917E-2,3.5E-4,4.3063633E-2,-7.715449E-4,6.1E2,5.4633185E-2,6.269075E-2,2.443755E1,7.126772E-3,4.7200537E-1,9.977386E-1,5.5E2,9.510508E0,1.9158367E1,5.6E2,5.3E2,2.7006031E1,1.9028184E3,2.0430637E3,4.1E2,4.1E2,5.9E2,6.1E2,4.9E2,5.593758E3,6.7735195E0,3.4788888E0,-5.7161202E0,-1.0484822E-2,-2.5537462E0,2.2711716E0,2.791894E0,-4.640326E0,8.01531E0,2.083852E0,2.9732585E0,5.2031255E-1,9.095314E0,3.4970918E0,4.973527E0,7.763943E0,2.0287616E0,-4.9590793E0,1.045077E1,3.7751348E0,8.3432045E0,1.3881217E1,-3.8594308E-1,-1.2781152E1,5.653366E0,1.568067E0,5.0230527E-1,-9.4950706E-1,-2.5157104E0,1.7958757E0,1.1068747E0,1.515835E-1,-7.1440303E-1,-2.078596E0,9.652187E-2,7.0945483E-1,6.5236044E-1,-1.0584424E0,6.816704E-1,4.5457046E-2,-5.18752E-1,-1.7268871E-1,8.5906774E-2,-4.9200943E-1,-2.3786998E-1,9.101691E-2,2.9874736E-1,7.568232E-2,8.177299E-2,-7.981819E-1,4.037037E-3,-9.7057015E-2,3.7458986E-1,1.1292859E-1],"split_indices":[0,2,0,1,2,1,1,0,1,0,0,0,1,1,0,0,1,0,0,0,0,0,0,0,2,0,2,2,0,2,1,0,0,0,0,0,0,0,0,0,1,0,0,0,0,0,0,2,0,0,2,2,0,0,0,2,2,1,2,2,0,0,0,0,0,0,0,0,0,0,0,0,0,0,0,0,0,0,0,0,0,0,0,0,0,0,0,0,0,0,0,0,0,0,0,0,0,0,0,0,0,0,0,0,0,0,0,0,0,0,0,0,0,0,0],"split_type":[0,0,0,0,0,0,0,0,0,0,0,0,0,0,0,0,0,0,0,0,0,0,0,0,0,0,0,0,0,0,0,0,0,0,0,0,0,0,0,0,0,0,0,0,0,0,0,0,0,0,0,0,0,0,0,0,0,0,0,0,0,0,0,0,0,0,0,0,0,0,0,0,0,0,0,0,0,0,0,0,0,0,0,0,0,0,0,0,0,0,0,0,0,0,0,0,0,0,0,0,0,0,0,0,0,0,0,0,0,0,0,0,0,0,0],"sum_hessian":[2.402705E6,1.656E3,2.401049E6,4.01E2,1.255E3,8.6138E4,2.314911E6,2.18E2,1.83E2,1.224E3,3.1E1,5.1405E4,3.4733E4,7.27237E5,1.587674E6,5.6E1,1.62E2,1.38E2,4.5E1,9.18E2,3.06E2,2E0,2.9E1,1.351E3,5.0054E4,1.0965E4,2.3768E4,2.8672E5,4.40517E5,1.08841E6,4.99264E5,8E0,4.8E1,4.9E1,1.13E2,5.4E1,8.4E1,9E0,3.6E1,5.5E1,8.63E2,1.44E2,1.62E2,6E0,2.3E1,2.08E2,1.143E3,4.8871E4,1.183E3,3.149E3,7.816E3,2.1339E4,2.429E3,2.15935E5,7.0785E4,1.31093E5,3.09424E5,4.00921E5,6.87489E5,4.51716E5,4.7548E4,1.6E1,3.2E1,3.2E1,1.7E1,3.9E1,7.4E1,4.3E1,1.1E1,2.6E1,5.8E1,5E0,4E0,1.9E1,1.7E1,4.83E2,3.8E2,1.33E2,1.1E1,9E0,1.53E2,1E1,1.3E1,1.89E2,1.9E1,1.95E2,9.48E2,4.7688E4,1.183E3,6.2E1,1.121E3,1.723E3,1.426E3,6.084E3,1.732E3,1.2827E4,8.512E3,5.37E2,1.892E3,5.7016E4,1.58919E5,1.9215E4,5.157E4,3.9925E4,9.1168E4,1.03142E5,2.06282E5,2.40427E5,1.60494E5,6.82719E5,4.77E3,2.85293E5,1.66423E5,1.5421E4,3.2127E4],"tree_param":{"num_deleted":"0","num_feature":"3","num_nodes":"115","size_leaf_vector":"0"}},{"base_weights":[1.405455E-1,9.597535E0,1.3246192E-1,2.9268625E0,1.1865657E1,-1.3510916E-2,2.440252E-1,-3.065056E-1,9.39536E0,1.0861002E1,2.487261E1,9.5279247E-1,-6.61815E-2,5.351816E-1,1.02173455E-1,9.487889E0,-2.7978873E0,1.2317737E1,6.5309453E0,1.3927821E1,7.601216E0,4.0202873E1,1.9585987E1,2.1753788E0,5.707912E-1,-1.0682626E0,-7.930867E-3,1.2001061E0,2.2161187E-1,2.824654E-1,-2.4028216E-2,-2.8098032E-1,1.0910483E1,-1.1659395E1,1.13211684E-1,6.941047E0,2.6509638E1,4.581734E0,9.077715E0,3.5019674E0,1.6387478E1,6.6331635E0,2.5583418E1,-1.7037711E-3,4.9340355E1,1.1632634E0,2.2093712E1,-1.5998185E0,3.1437063E0,1.7354553E0,8.435598E-2,2.6504448E-1,-1.8505266E0,6.2974215E-1,-5.6986596E-2,1.7317685E0,1.3694822E-2,-8.952952E-1,6.723379E-1,6.376327E-1,-1.8484844E0,-3.7568083E-1,3.276284E-1,-1.7001341E-3,-1.397251E0,1.5347814E1,7.048891E0,-1.2919133E1,2.0361227E1,-1.7523764E1,1.1708641E0,3.0759423E0,1.3529232E1,3.141319E1,1.6993702E1,6.8947487E0,-1.4686005E1,2.4737915E1,7.028614E0,1.4713426E1,-9.10044E0,1.4411266E1,4.742573E1,7.6185985E0,-1.6678978E1,3.3489277E1,1.2809656E1,5.514633E1,2.9020926E1,2.1563965E1,-1.3574846E1,4.7700623E1,1.865509E1,-5.581577E0,-1.1817813E0,-1.5420536E0,3.8318915E0,2.5460133E-1,3.5877874E0,-4.7606474E-1,7.970473E-1,1.431853E0,-2.2870898E0,-1.0895952E0,-2.2623367E0,-1.346388E0,9.209727E-1,-8.856541E-1,1.207057E-2,8.165645E-1,2.889551E0,1.3335826E0,-5.3924456E0,6.953449E-1,-4.0863724E0,-4.7581875E-1,1.0604982E0,9.615801E-1,3.4458122E-1,-2.0134578E0,-1.2554952E0,-5.9665716E-1,5.081165E-1,4.8749703E-1,-3.1184915E-1],"categories":[],"categories_nodes":[],"categories_segments":[],"categories_sizes":[],"default_left":[true,true,true,true,true,true,true,true,true,true,true,true,true,true,true,true,true,true,true,true,true,true,true,true,true,true,true,true,true,true,true,true,true,true,true,true,true,true,true,true,true,true,true,false,true,true,true,true,true,true,true,true,true,true,true,true,true,true,true,true,true,true,true,false,false,false,false,false,false,false,false,false,false,false,false,false,false,false,false,false,false,false,false,false,false,false,false,false,false,false,false,false,false,false,false,false,false,false,false,false,false,false,false,false,false,false,false,false,false,false,false,false,false,false,false,false,false,false,false,false,false,false,false,false,false],"id":16,"left_children":[1,3,5,7,9,11,13,15,17,19,21,23,25,27,29,31,33,35,37,39,41,43,45,47,49,51,53,55,57,59,61,63,65,67,69,71,73,75,77,79,81,83,85,-1,87,89,91,93,95,97,99,101,103,105,107,109,111,113,115,117,119,121,123,-1,-1,-1,-1,-1,-1,-1,-1,-1,-1,-1,-1,-1,-1,-1,-1,-1,-1,-1,-1,-1,-1,-1,-1,-1,-1,-1,-1,-1,-1,-1,-1,-1,-1,-1,-1,-1,-1,-1,-1,-1,-1,-1,-1,-1,-1,-1,-1,-1,-1,-1,-1,-1,-1,-1,-1,-1,-1,-1,-1,-1,-1],"loss_changes":[1.8367677E5,3.1011812E4,3.909517E4,1.0920528E4,1.9736203E4,5.2929215E4,5.6198438E4,8.542697E3,1.3760898E3,1.4120094E4,8.0465234E3,2.5103938E4,5.75662E4,9.2940984E4,2.081786E4,9.897617E2,7.1986064E3,6.301958E3,4.0518555E2,1.8714047E4,1.18764375E4,9.919035E3,3.80883E3,4.678609E4,2.3204508E4,5.6508047E4,2.9155062E4,9.0104875E4,1.5249278E5,2.8513222E5,6.655545E4,3.1151476E0,9.541953E2,3.0463438E3,3.9564675E3,1.5626184E3,5.3939746E2,2.4632837E3,1.045521E3,2.005598E4,3.562872E4,1.5243035E4,3.1055762E3,0E0,9.9503516E2,3.600073E3,5.5379688E3,4.3428022E3,3.284918E4,3.3099266E4,1.1540445E4,5.9661562E4,1.069718E4,3.8317508E4,4.9525414E4,1.0452153E5,3.154391E5,4.4207938E5,9.6184766E4,3.0655234E4,5.2626562E3,5.2556246E4,2.7511191E4,0E0,0E0,0E0,0E0,0E0,0E0,0E0,0E0,0E0,0E0,0E0,0E0,0E0,0E0,0E0,0E0,0E0,0E0,0E0,0E0,0E0,0E0,0E0,0E0,0E0,0E0,0E0,0E0,0E0,0E0,0E0,0E0,0E0,0E0,0E0,0E0,0E0,0E0,0E0,0E0,0E0,0E0,0E0,0E0,0E0,0E0,0E0,0E0,0E0,0E0,0E0,0E0,0E0,0E0,0E0,0E0,0E0,0E0,0E0,0E0,0E0,0E0],"parents":[2147483647,0,0,1,1,2,2,3,3,4,4,5,5,6,6,7,7,8,8,9,9,10,10,11,11,12,12,13,13,14,14,15,15,16,16,17,17,18,18,19,19,20,20,21,21,22,22,23,23,24,24,25,25,26,26,27,27,28,28,29,29,30,30,31,31,32,32,33,33,34,34,35,35,36,36,37,37,38,38,39,39,40,40,41,41,42,42,44,44,45,45,46,46,47,47,48,48,49,49,50,50,51,51,52,52,53,53,54,54,55,55,56,56,57,57,58,58,59,59,60,60,61,61,62,62],"right_children":[2,4,6,8,10,12,14,16,18,20,22,24,26,28,30,32,34,36,38,40,42,44,46,48,50,52,54,56,58,60,62,64,66,68,70,72,74,76,78,80,82,84,86,-1,88,90,92,94,96,98,100,102,104,106,108,110,112,114,116,118,120,122,124,-1,-1,-1,-1,-1,-1,-1,-1,-1,-1,-1,-1,-1,-1,-1,-1,-1,-1,-1,-1,-1,-1,-1,-1,-1,-1,-1,-1,-1,-1,-1,-1,-1,-1,-1,-1,-1,-1,-1,-1,-1,-1,-1,-1,-1,-1,-1,-1,-1,-1,-1,-1,-1,-1,-1,-1,-1,-1,-1,-1,-1,-1],"split_conditions":[5.839276E-1,4.1E2,5.5E2,6.1E2,5.9E2,2.2998221E2,1.8181611E3,2.8581745E-3,4.3392755E-2,1.4718923E-2,5.87304E-4,4.7E2,5.4294995E2,4.5E2,5.7E2,2.5E-5,5.1E2,1.0930808E-2,1.425435E-1,5.3E2,5.332171E-1,2.5E-5,1.9264643E-3,4.3E2,7.1038826E1,4.1E2,4.3E2,6.1E2,4.9E2,5.3E2,4.7E2,5.9E2,2.2099663E-4,5.235454E-1,1.0225706E-2,6.5E2,2.3251384E-2,1.3068223E-1,1.4740974E-1,8.9510105E-4,1.07102245E-2,4.632828E-1,6.1E2,-5.1113137E-4,2.25E-4,8.25E-4,4.3853708E-3,2.3298073E1,3.9988422E1,4.000893E1,4.5E2,5.1E2,4.3E2,1.3975953E3,4.5E2,4.1E2,9.5514575E2,5.9E2,5.7E2,4.374377E3,6.0285215E3,6.3E2,6.2E2,-5.1004026E-4,-4.1917533E-1,4.6043444E0,2.1146674E0,-3.87574E0,6.1083684E0,-5.257129E0,3.5125923E-1,9.227827E-1,4.0587697E0,9.423958E0,5.0981107E0,2.0684247E0,-4.405802E0,7.421375E0,2.1085844E0,4.4140277E0,-2.730132E0,4.32338E0,1.422772E1,2.2855797E0,-5.0036936E0,1.0046783E1,3.842897E0,1.65439E1,8.706278E0,6.4691896E0,-4.072454E0,1.4310187E1,5.596527E0,-1.6744732E0,-3.545344E-1,-4.626161E-1,1.1495675E0,7.63804E-2,1.0763363E0,-1.4281943E-1,2.3911421E-1,4.2955592E-1,-6.8612695E-1,-3.2687858E-1,-6.7870104E-1,-4.0391642E-1,2.7629182E-1,-2.6569623E-1,3.6211712E-3,2.4496935E-1,8.6686534E-1,4.000748E-1,-1.6177337E0,2.0860349E-1,-1.2259117E0,-1.4274563E-1,3.1814948E-1,2.8847405E-1,1.0337437E-1,-6.0403734E-1,-3.7664858E-1,-1.7899716E-1,1.5243495E-1,1.4624912E-1,-9.355475E-2],"split_indices":[0,2,1,1,2,0,0,0,0,0,0,1,0,2,1,0,1,0,0,1,0,0,0,1,0,2,1,1,2,2,2,1,0,0,0,1,0,0,0,0,0,0,1,0,0,0,0,0,0,0,2,1,2,0,1,2,0,1,1,0,0,1,1,0,0,0,0,0,0,0,0,0,0,0,0,0,0,0,0,0,0,0,0,0,0,0,0,0,0,0,0,0,0,0,0,0,0,0,0,0,0,0,0,0,0,0,0,0,0,0,0,0,0,0,0,0,0,0,0,0,0,0,0,0,0],"split_type":[0,0,0,0,0,0,0,0,0,0,0,0,0,0,0,0,0,0,0,0,0,0,0,0,0,0,0,0,0,0,0,0,0,0,0,0,0,0,0,0,0,0,0,0,0,0,0,0,0,0,0,0,0,0,0,0,0,0,0,0,0,0,0,0,0,0,0,0,0,0,0,0,0,0,0,0,0,0,0,0,0,0,0,0,0,0,0,0,0,0,0,0,0,0,0,0,0,0,0,0,0,0,0,0,0,0,0,0,0,0,0,0,0,0,0,0,0,0,0,0,0,0,0,0,0],"sum_hessian":[2.402705E6,2.051E3,2.400654E6,5.21E2,1.53E3,1.039951E6,1.360703E6,3.48E2,1.73E2,1.422E3,1.08E2,5.3754E4,9.86197E5,4.4576E5,9.14943E5,7E1,2.78E2,8.4E1,8.9E1,7.31E2,6.91E2,2.6E1,8.2E1,1.2796E4,4.0958E4,5.4177E4,9.3202E5,1.42848E5,3.02912E5,3.76736E5,5.38207E5,9E0,6.1E1,6.8E1,2.1E2,6.2E1,2.2E1,5.2E1,3.7E1,1.4E2,5.91E2,6.57E2,3.4E1,5E0,2.1E1,1E1,7.2E1,2.612E3,1.0184E4,1.2066E4,2.8892E4,2.0033E4,3.4144E4,6.6577E4,8.65443E5,9.8643E4,4.4205E4,8.7093E4,2.15819E5,3.22916E5,5.382E4,2.69105E5,2.69102E5,8E0,1E0,2.7E1,3.4E1,6.6E1,2E0,1.1E1,1.99E2,4E1,2.2E1,1.3E1,9E0,4.7E1,5E0,3E0,3.4E1,7.4E1,6.6E1,5.57E2,3.4E1,6.31E2,2.6E1,2E1,1.4E1,1.5E1,6E0,4E0,6E0,7E0,6.5E1,2.47E2,2.365E3,1.304E3,8.88E3,6.706E3,5.36E3,1.6174E4,1.2718E4,1.3748E4,6.285E3,1.1991E4,2.2153E4,8.551E3,5.8026E4,6.6573E4,7.9887E5,5.5094E4,4.3549E4,3.5531E4,8.674E3,5.8122E4,2.8971E4,5.4528E4,1.61291E5,1.53372E5,1.69544E5,4.2104E4,1.1716E4,2.15279E5,5.3826E4,2.15282E5,5.382E4],"tree_param":{"num_deleted":"0","num_feature":"3","num_nodes":"125","size_leaf_vector":"0"}},{"base_weights":[9.842604E-2,7.2493753E0,9.3020104E-2,1.0870159E1,5.141184E0,9.9607326E-2,-2.0975747E0,9.141502E0,3.1139048E1,-2.5713419E1,6.1336656E0,6.791741E-2,5.361957E-1,1.2195953E0,-2.348044E0,1.0662534E1,-1.3635354E1,1.4764966E2,2.0992487E1,-4.349296E1,-9.315137E0,2.460725E1,5.1325994E0,1.2151014E0,5.7789575E-2,3.5508633E-1,4.430288E0,3.704963E0,-1.2804165E0,-2.978686E0,-1.7167003E0,6.3968077E0,1.7375345E1,3.5376344E0,-3.0126575E1,1.4972752E1,4.6083225E1,9.907308E0,-5.1273487E1,4.307129E0,-1.4143034E1,-9.284717E0,3.1155426E1,4.8063064E0,2.6082039E1,1.7543638E0,-5.5816066E-1,6.4653665E-2,-2.2476122E0,1.3415304E0,-5.0275606E-1,-3.0516021E0,4.8096323E0,8.187232E0,3.3284032E0,2.5148844E1,-1.5912029E0,-5.328445E0,-2.7086143E0,-2.4443884E0,-1.5692928E0,7.1815624E0,-2.1395386E1,-3.401913E0,2.024026E1,-1.6616641E0,2.4750244E1,-5.7164185E1,-2.8081498E0,-6.522461E0,1.7472841E1,-1.7284058E1,3.214502E1,-1.059082E-1,1.3186157E1,-1.6333353E1,-4.036316E0,-4.056372E1,9.915388E0,3.2765381E0,3.7505E1,-1.2783964E1,5.0234423E0,4.240078E1,1.710906E1,3.883175E-1,5.3585606E0,1.4774464E1,-6.972702E-1,3.890617E-2,4.689658E-1,-5.944825E0,1.4502853E0,5.7677846E0,2.4969676E-1,-6.0113726E0,2.1682937E-2,1.4578408E0,-3.609075E0,3.7808108E0,5.83675E0,4.95665E0,1.4360718E1,6.5947E-1,3.8372922E0,4.8165936E0,-2.0773103E0,-8.648296E-1,-6.836109E0,-3.4425528E0,-2.6499493E0,-2.1188123E0,-2.6491787E0,-1.6959181E0,-1.4867889E0],"categories":[],"categories_nodes":[],"categories_segments":[],"categories_sizes":[],"default_left":[true,true,true,true,true,true,true,true,true,true,true,true,true,true,true,true,true,false,true,true,true,true,true,true,true,true,true,true,true,true,true,true,true,true,true,true,false,true,false,true,true,true,true,true,true,true,true,true,true,true,true,true,true,true,true,false,true,true,true,true,true,false,false,false,false,false,false,false,false,false,false,false,false,false,false,false,false,false,false,false,false,false,false,false,false,false,false,false,false,false,false,false,false,false,false,false,false,false,false,false,false,false,false,false,false,false,false,false,false,false,false,false,false,false,false],"id":17,"left_children":[1,3,5,7,9,11,13,15,17,19,21,23,25,27,29,31,33,-1,35,37,39,41,43,45,47,49,51,53,55,57,59,61,63,65,67,69,-1,71,-1,73,75,77,79,81,83,85,87,89,91,93,95,97,99,101,103,-1,105,107,109,111,113,-1,-1,-1,-1,-1,-1,-1,-1,-1,-1,-1,-1,-1,-1,-1,-1,-1,-1,-1,-1,-1,-1,-1,-1,-1,-1,-1,-1,-1,-1,-1,-1,-1,-1,-1,-1,-1,-1,-1,-1,-1,-1,-1,-1,-1,-1,-1,-1,-1,-1,-1,-1,-1,-1],"loss_changes":[9.288214E4,1.37985625E4,3.464494E4,2.3085656E4,3.5343117E4,3.3117812E4,5.9833145E3,2.1486281E4,5.8373934E4,1.0090799E4,2.0475215E4,2.5928992E4,1.1424225E5,3.148749E3,2.6597148E3,1.643989E4,1.1151516E4,0E0,6.710949E3,7.571176E3,1.3762538E3,1.2939309E4,7.1067637E3,1.8676607E4,3.500671E4,1.30986914E5,2.0446969E4,4.0146118E2,2.1181216E3,2.109584E3,3.5518652E2,7.8962217E3,1.3402469E4,2.2469404E3,1.4611971E4,2.3173047E3,0E0,2.3696174E3,0E0,2.364974E2,2.661277E2,6.4078066E3,8.374031E3,4.0479375E3,1.6174053E3,7.373225E4,9.725723E3,2.2960457E4,8.979208E4,3.4795056E5,2.3918361E5,8.8009644E2,7.2185938E3,3.0775415E2,3.1800244E2,0E0,7.918397E2,2.309081E3,1.202207E2,3.1858154E1,2.6583984E1,0E0,0E0,0E0,0E0,0E0,0E0,0E0,0E0,0E0,0E0,0E0,0E0,0E0,0E0,0E0,0E0,0E0,0E0,0E0,0E0,0E0,0E0,0E0,0E0,0E0,0E0,0E0,0E0,0E0,0E0,0E0,0E0,0E0,0E0,0E0,0E0,0E0,0E0,0E0,0E0,0E0,0E0,0E0,0E0,0E0,0E0,0E0,0E0,0E0,0E0,0E0,0E0,0E0,0E0],"parents":[2147483647,0,0,1,1,2,2,3,3,4,4,5,5,6,6,7,7,8,8,9,9,10,10,11,11,12,12,13,13,14,14,15,15,16,16,18,18,19,19,20,20,21,21,22,22,23,23,24,24,25,25,26,26,27,27,28,28,29,29,30,30,31,31,32,32,33,33,34,34,35,35,37,37,39,39,40,40,41,41,42,42,43,43,44,44,45,45,46,46,47,47,48,48,49,49,50,50,51,51,52,52,53,53,54,54,56,56,57,57,58,58,59,59,60,60],"right_children":[2,4,6,8,10,12,14,16,18,20,22,24,26,28,30,32,34,-1,36,38,40,42,44,46,48,50,52,54,56,58,60,62,64,66,68,70,-1,72,-1,74,76,78,80,82,84,86,88,90,92,94,96,98,100,102,104,-1,106,108,110,112,114,-1,-1,-1,-1,-1,-1,-1,-1,-1,-1,-1,-1,-1,-1,-1,-1,-1,-1,-1,-1,-1,-1,-1,-1,-1,-1,-1,-1,-1,-1,-1,-1,-1,-1,-1,-1,-1,-1,-1,-1,-1,-1,-1,-1,-1,-1,-1,-1,-1,-1,-1,-1,-1,-1],"split_conditions":[2.7829045E-1,4.0402347E-3,6.1E2,3.0076464E-3,5.2406834E-3,5.7E2,2.5506031E1,2.4184268E-3,3.0945074E-3,6.1E2,6.3778963E-3,3.183691E1,6.5E2,6.5E2,6.5E2,4.9E2,4.5E2,4.42949E1,5.3E2,5.3E2,4.2358055E-3,4.9E2,6.1E2,6.3E2,5.5E2,6.1E2,1.756895E1,2.0426962E0,4.6936297E-1,5.9842697E1,8.156937E1,2.071847E-3,2.5E-5,4.3E2,5.3E2,4.1E2,1.3824968E1,4.9169594E-3,-1.5382047E1,4.1184286E-3,4.8384834E-3,5.556142E-3,4.1E2,4.5E2,1.8170165E-2,5.9E2,5.634259E-1,6.3E2,6.2E2,1.4248105E3,6.3E2,2.1189518E0,5.9E2,1.5426962E0,5.842696E0,7.5446534E0,2.169363E0,3.42427E1,8.16427E1,4.7569363E1,1.9066937E2,2.1544688E0,-6.418616E0,-1.020574E0,6.072078E0,-4.9849924E-1,7.4250736E0,-1.7149256E1,-8.4244496E-1,-1.9567384E0,5.2418528E0,-5.1852174E0,9.643506E0,-3.177246E-2,3.9558473E0,-4.9000063E0,-1.2108948E0,-1.2169117E1,2.9746165E0,9.829615E-1,1.1251501E1,-3.8351893E0,1.5070328E0,1.2720235E1,5.132718E0,1.1649525E-1,1.6075683E0,4.432339E0,-2.0918107E-1,1.167185E-2,1.4068975E-1,-1.7834476E0,4.3508562E-1,1.7303355E0,7.490903E-2,-1.8034118E0,6.504881E-3,4.3735227E-1,-1.0827225E0,1.1342432E0,1.7510251E0,1.486995E0,4.3082156E0,1.9784102E-1,1.1511877E0,1.4449781E0,-6.2319314E-1,-2.594489E-1,-2.0508327E0,-1.0327659E0,-7.949848E-1,-6.356437E-1,-7.947537E-1,-5.087755E-1,-4.4603667E-1],"split_indices":[0,0,2,0,0,2,0,0,0,1,0,0,1,1,1,2,2,0,2,1,0,1,2,1,2,1,0,0,0,0,0,0,0,2,2,2,0,0,0,0,0,0,2,1,0,1,0,1,1,0,1,0,2,0,0,0,0,0,0,0,0,0,0,0,0,0,0,0,0,0,0,0,0,0,0,0,0,0,0,0,0,0,0,0,0,0,0,0,0,0,0,0,0,0,0,0,0,0,0,0,0,0,0,0,0,0,0,0,0,0,0,0,0,0,0],"split_type":[0,0,0,0,0,0,0,0,0,0,0,0,0,0,0,0,0,0,0,0,0,0,0,0,0,0,0,0,0,0,0,0,0,0,0,0,0,0,0,0,0,0,0,0,0,0,0,0,0,0,0,0,0,0,0,0,0,0,0,0,0,0,0,0,0,0,0,0,0,0,0,0,0,0,0,0,0,0,0,0,0,0,0,0,0,0,0,0,0,0,0,0,0,0,0,0,0,0,0,0,0,0,0,0,0,0,0,0,0,0,0,0,0,0,0],"sum_hessian":[2.402705E6,1.814E3,2.400891E6,6.66E2,1.148E3,2.393694E6,7.197E3,6.15E2,5.1E1,3.5E1,1.113E3,2.231706E6,1.61988E5,5.05E2,6.692E3,5.77E2,3.8E1,3E0,4.8E1,1.6E1,1.9E1,5.6E1,1.057E3,1.9529E4,2.212177E6,1.5479E5,7.198E3,2.53E2,2.52E2,3.346E3,3.346E3,3.54E2,2.23E2,1.9E1,1.9E1,4E1,8E0,2E0,1.4E1,5E0,1.4E1,9E0,4.7E1,1.042E3,1.5E1,1.4975E4,4.554E3,2.205611E6,6.566E3,7.1998E4,8.2792E4,3.47E2,6.851E3,1.8E1,2.35E2,2E0,2.5E2,3.43E2,3.003E3,5.61E2,2.785E3,3.45E2,9E0,2.7E1,1.96E2,1.6E1,3E0,9E0,1E1,4E0,3.6E1,1E0,1E0,4E0,1E0,1.1E1,3E0,3E0,6E0,9E0,3.8E1,1.2E1,1.03E3,4E0,1.1E1,1.086E4,4.115E3,4E1,4.514E3,2.073563E6,1.32048E5,3.283E3,3.283E3,1.4245E4,5.7753E4,7.196E3,7.5596E4,3.8E1,3.09E2,3.425E3,3.426E3,1.3E1,5E0,3.8E1,1.97E2,1.7E1,2.33E2,8.7E1,2.56E2,2.18E2,2.785E3,2.21E2,3.4E2,1.091E3,1.694E3],"tree_param":{"num_deleted":"0","num_feature":"3","num_nodes":"115","size_leaf_vector":"0"}},{"base_weights":[6.8928264E-2,6.6817064E0,6.590216E-2,5.186864E0,1.663893E1,9.373835E-2,-3.1135964E-1,4.4081736E0,1.6356531E1,1.4629516E1,3.560772E1,-8.986548E-2,1.4487469E-1,-1.8254521E-1,-4.6698803E-1,4.917433E0,-3.7011097E1,4.4692184E1,6.362341E0,7.3404694E0,1.9334452E1,5.0926167E-1,3.8490154E1,2.7437952E-1,-5.485116E-1,1.3444924E0,1.356871E-1,-2.957699E-1,-8.929324E-2,-8.1618917E-1,-4.1525492E-1,8.067545E0,2.2603521E0,-2.1196085E1,-4.6657593E1,4.7933952E1,2.2983398E1,1.5975937E0,2.6302652E1,8.79518E0,-8.383789E0,3.832019E1,1.695639E1,5.0719563E1,2.2509207E1,5.6117606E-1,-6.0676146E-1,8.721518E-1,-6.789376E-1,2.023038E0,-2.3070784E0,1.4260429E-1,-1.6312304E0,-1.475924E-1,-6.662518E-1,-1.2756705E-1,1.977987E-1,-6.8210125E-1,-9.6460974E-1,-9.756444E-2,-5.0601274E-1,-4.446448E0,1.0299522E1,-3.3409688E0,6.012587E0,-3.1566406E1,-3.0362955E-1,8.124666E0,-1.8143383E1,3.3756447E1,1.358833E1,-3.880406E0,1.1000169E1,2.626953E-1,4.3719448E1,-6.45745E0,1.9182762E1,5.892456E0,3.3498657E1,-5.859312E-2,1.7879529E0,-1.1072737E0,-3.8557187E-1,2.0543644E0,-1.6066463E-1,-9.9050164E-1,4.0982746E-2,6.5662706E-1,3.1798332E0,1.7765949E0,-2.8850434E0,1.1630843E-1,4.1976896E-1,-2.049672E0,-1.2121834E0,-4.2350593E-1,3.637418E-2,-3.5575438E-1,-7.696865E-1,-4.5699913E-2,-2.912757E-1,4.6112624E-1,-6.559673E-2,-5.44869E-1,-8.190644E-1,-1.3204398E0,-8.455456E-1,2.644844E-1,-1.6996612E-1,-8.951963E-1,-4.144138E-1],"categories":[],"categories_nodes":[],"categories_segments":[],"categories_sizes":[],"default_left":[true,